-0.09964878 -0.08463272 -0.04831127 0.39485815 -0.17324437 0.02370974 -0.61564237 0.11923594 -0.18398890 -0.05283568 -0.03716471 -0.10493381 0.06953325 -0.10939814 -0.09991076 -0.05774346 -0.10747820 0.02469013 0.32392421 -0.27151054 0.15573131 0.10022519 -0.51494151 -0.05197599 -0.02525534 0.04014963 -0.32415807 0.52091336 -0.21183716 0.12439843 -0.22156502 -0.09145039 -0.04353166 0.05494688 -0.15614019 0.04324485 0.15913369 -0.05650539 0.15468566 -0.27686438 0.11439667 0.11517607 0.13751343 0.04597168 -0.27224404 -0.13801458 -0.46056902 0.06843977 0.00343091 0.52938199 0.21731463 -0.16006419 -0.26164669 0.14394490 0.36166763 -0.07155011 0.26674634 -0.28498504 -0.26758680 -0.40436825 -0.01493766 0.26562092 0.34279841 0.00003931
-0.07825781 -0.13593405 0.00265568 -0.09904286 0.08378582 -0.02650961 0.00699768 0.21095966 0.17998904 -0.22884449 0.06037338 -0.24334952 -0.04741575 -0.12824894 -0.13514443 -0.04432756 0.07860026 0.08464647 0.29490146 -0.12275159 0.09251615 0.28755733 -0.20303558 -0.49829116 -0.23996818 0.04780014 0.09297573 0.25138736 0.00378739 -0.10150176 0.07942036 0.01485624 -0.05233888 -0.10515833 -0.19608516 0.13912372 0.32727978 -0.18314630 -0.08873543 0.01514433 -0.04400863 0.19161084 -0.14139524 -0.14056164 -0.53645402 -0.25627062 0.08781257 -0.02152028 -0.04300262 -0.28850853 -0.04849510 -0.05606787 -0.17053238 -0.09672435 0.04070003 0.08583406 -0.16189106 -0.18255395 -0.14136031 -0.08562565 -0.08169723 -0.22488402 -0.26547319 0.16858678
0.02946914 0.29974258 0.19457297 0.02845059 0.27029392 0.19187805 -0.00847128 -0.34370261 -0.07594568 0.24897331 0.17717560 -0.07613723 0.15147752 0.11675349 -0.04459307 0.23223799 -0.07530360 0.11717127 0.19201170 0.43290094 0.01376228 -0.29426903 0.04375443 -0.02853632 0.03642920 -0.07463918 -0.15273590 -0.32385179 -0.09679274 -0.09005107 -0.09059515 0.21978657 0.12756373 0.04164961 0.04108391 0.17167501 0.05530592 0.22792421 0.11891668 -0.12212116 0.08331158 -0.05605738 -0.22651842 -0.17944366 0.05223165 0.31953767 -0.15971957 0.00965344 0.05025167 -0.19627339 0.11126240 0.05292961 -0.03014835 -0.27072391 -0.20151737 0.16158587 0.10977631 -0.13729425 0.29759157 0.45892063 0.29595476 -0.00377187 -0.36376160 0.28373256
-0.22156020 0.07565084 -0.01033931 0.51911068 -0.45681247 -0.30596054 0.37302360 0.08068319 -0.28413740 0.26486418 0.34328860 0.35968155 -0.23839663 0.06843402 0.09039221 -0.15352374 -0.12307204 -0.13693693 -0.05929790 0.03972258 0.02698303 0.22996269 -0.27242157 0.12155824 0.11262066 0.14271595 0.26366436 -0.02338988 -0.11574537 0.13894321 0.26621261 -0.09755540 -0.08789141 -0.23659162 0.24955945 0.19779773 -0.24975675 -0.18153282 0.41039252 0.16498302 -0.00390715 -0.00503588 -0.19628510 0.27792573 0.13673176 0.23013215 0.07057576 -0.02392075 0.21776637 -0.26782426 -0.23493859 0.35142407 0.13393003 -0.02732691 0.35629946 0.19420239 -0.23806988 0.17787327 0.12243275 0.39247602 0.01568937 0.07421757 -0.37986508 0.12221308
-0.20481238 0.23757151 0.14535232 0.10676949 -0.13473819 -0.01065113 0.24567588 -0.29636618 0.14442839 -0.31849644 0.29559109 -0.34325695 0.23489165 -0.25911456 0.13666192 0.36300161 -0.00566876 0.13672183 0.06252261 -0.08846821 -0.18122084 -0.01214772 0.17970446 0.25594136 -0.20922212 0.10082374 0.00941316 -0.00108782 -0.14480288 0.12307502 -0.10691583 -0.05702455 -0.18277934 0.47171149 0.34607863 -0.02523366 0.00542370 -0.03460805 0.14113145 0.09571732 0.53193116 -0.09470094 -0.02169062 0.07027583 0.15157948 0.23199029 0.13542582 0.12488060 -0.01370605 0.09158447 -0.28107014 0.14625409 -0.22538172 0.13759978 -0.20133042 0.35331231 0.04522821 0.15335257 0.13644785 -0.05111219 0.00276354 -0.22438367 0.01302177 -0.08931923
0.06131413 0.06326437 0.00940792 0.28274813 0.27010962 -0.27455655 0.02749133 -0.06362430 -0.14568670 0.10109888 0.04395503 0.07332940 0.01036764 0.04963649 0.25908509 0.35280746 0.01221785 0.03043683 0.10315693 0.05281856 0.17877927 -0.16664423 0.23583588 0.38129479 -0.21415909 0.09159980 0.15844128 0.13083158 -0.05255029 0.06911422 0.14266378 0.07849931 -0.23927134 -0.37991422 0.06487342 -0.20875126 0.28276265 -0.12732974 0.31142962 0.26231685 -0.36674365 -0.33590949 -0.21652469 0.10994212 0.38756755 -0.02529725 -0.17390157 -0.34401417 0.06515446 0.10066664 0.02320505 -0.19506508 -0.19994557 0.01764567 0.26142192 0.14041464 0.04927658 -0.01738285 -0.11306431 0.02651522 -0.22709370 -0.08721216 0.01613483 -0.04046895
0.03286109 0.31207395 -0.10621081 -0.25515541 -0.20784479 0.28644145 0.45801145 -0.24314271 -0.02393415 0.32603836 -0.05239866 0.18669610 0.06672460 0.18328921 0.24989951 0.16088864 -0.20465338 0.21098997 -0.18600495 0.27297989 -0.19090457 -0.20687285 0.15359786 0.21910210 0.04407167 0.07659873 -0.15494360 -0.19073686 -0.09224802 0.41083077 -0.28573444 -0.04038548 0.05564514 -0.27506092 0.26618764 -0.05941799 -0.11546159 0.21312097 0.41234902 -0.22364970 -0.23234767 -0.17362233 0.33110574 0.04915562 -0.04541783 -0.17845479 -0.12809841 0.07311311 0.10149227 -0.19840708 -0.23184207 0.10411651 0.27864254 0.07507994 0.18734062 -0.02377944 -0.27874655 -0.01318729 -0.04615929 0.41176441 0.21821964 0.24815568 -0.08841760 0.12575439
0.14412081 -0.20115806 -0.26963732 0.08801188 0.12457222 -0.06974266 0.19521081 -0.06056372 0.04081326 0.28082085 -0.13905804 -0.05381066 -0.12455665 0.14194642 -0.11043064 0.00800109 -0.40304139 -0.36106467 -0.15796620 0.06939919 -0.13071299 -0.04722961 0.23492979 -0.14169024 -0.14679344 -0.07284894 -0.01711113 -0.31128815 0.05690362 -0.23952444 0.32263377 -0.08108147 -0.14752057 -0.04765223 -0.07182706 0.06004429 0.07352901 0.16945495 0.13206473 0.38445368 -0.17772439 -0.02757213 0.09271777 0.24688314 -0.06735729 -0.02113089 0.31964725 -0.16101763 0.09153041 0.02661356 0.15742914 0.08733994 0.17637628 -0.01768526 -0.03153383 0.13074102 -0.06746647 0.10766371 0.11346619 -0.17922068 -0.12145810 -0.15012150 -0.18079354 0.18828300
-0.04510317 -0.18853386 0.11494008 0.20605154 -0.09160308 -0.28538936 -0.25153887 0.01088284 0.17162086 -0.22097430 -0.20201600 0.24138136 0.06902271 0.04905945 -0.10490018 -0.22290540 0.10793157 0.02988345 0.01236735 0.07728292 -0.18465437 -0.30947298 0.14044996 0.03288925 0.21057940 -0.11939762 -0.11275044 -0.35127264 0.04967489 0.11661576 -0.06024511 0.02062378 -0.02650002 -0.15669386 0.18342435 -0.26677713 0.03463823 -0.07743501 -0.29737774 -0.14243491 -0.17394343 -0.04052445 -0.05067566 -0.25399792 0.44738123 -0.24108638 0.21950622 -0.21028426 0.28963667 0.04217801 -0.28827980 0.06513676 -0.20619379 -0.14488105 -0.11089999 -0.13259201 0.32252738 0.41633326 -0.58071297 0.00881186 0.10373975 0.09038164 0.12298743 0.42870942
0.31536812 0.08414627 -0.24355258 -0.19138940 -0.09937529 -0.00010379 0.19850571 0.22992590 -0.09004724 -0.37614658 -0.23296662 0.04180072 -0.05408994 0.10023440 0.23330916 0.00979411 0.06153568 0.43131569 -0.09796421 -0.17892897 -0.38431135 0.19936807 -0.05525619 0.10729706 -0.22530456 0.19458990 -0.10245555 -0.07448966 0.27716112 -0.34604985 0.11173314 0.23322766 0.23089375 0.18879712 -0.19740462 -0.10508829 0.03801623 -0.08288916 -0.34017038 -0.18822165 -0.24961203 -0.08245292 0.24320078 -0.49702159 0.22493967 0.15873848 0.29788846 0.00711190 -0.06094232 -0.05796498 -0.21322927 -0.17264755 0.17881469 0.12454779 0.23542054 0.17890668 -0.23532452 -0.25703031 -0.00124924 -0.18091920 -0.24687357 0.13207248 -0.42218387 -0.24799655
-0.12738374 0.21247135 0.22952947 -0.08680993 0.09469604 -0.40938005 0.10027523 -0.23994461 0.21652004 0.19881134 0.02196133 0.20017155 -0.25242263 0.15376078 -0.29493383 -0.11064105 0.11601064 0.20054026 -0.00297942 0.10062133 -0.16435735 0.11517571 -0.01727095 -0.28740543 0.21811572 0.26474169 0.22025320 -0.08749969 0.29286143 0.15073057 -0.08248603 0.13099478 0.07764442 -0.02148099 -0.33993879 -0.05678583 0.06943468 0.41103545 -0.22927396 0.23972949 0.29032609 0.17325950 -0.02568111 0.16679761 0.06853291 -0.19423483 0.19295347 -0.11162256 -0.04170652 0.28715000 0.18230683 -0.08090223 0.21832436 -0.10778496 -0.18345845 -0.05355423 -0.18371762 -0.33770406 0.25825056 0.21325533 0.06366237 -0.07274386 0.21687491 -0.29494253
0.38482139 -0.22158879 -0.23499094 -0.09878708 0.23251560 0.31481025 -0.06170929 -0.10711894 -0.07383864 -0.02458145 0.11648089 -0.28386959 0.37700573 -0.08285100 0.29794201 0.29000309 -0.18049027 0.02070629 -0.01117240 0.11196241 0.05508142 0.20838423 0.00620185 -0.08307151 -0.19546273 0.34583363 0.22016436 -0.08748274 0.01208927 -0.32357183 -0.06428434 0.18637154 -0.26388785 0.03894245 -0.19047906 -0.06511720 0.24824095 -0.15850496 -0.13190717 -0.11376983 -0.10901932 0.11451350 0.65961307 -0.14133957 -0.25840643 0.04767373 -0.08183900 -0.11463208 -0.05489967 -0.28457725 0.32885778 0.10358889 -0.27267647 0.21354346 -0.15820165 -0.20713416 -0.28561822 0.44758925 0.21102425 0.16523518 0.14502043 0.41748959 -0.14941677 0.04975494
0.36089909 -0.13694945 0.18057235 -0.15640192 0.03438673 0.32703391 0.09346569 -0.21933880 -0.05280073 -0.21121536 -0.17904453 0.10950508 0.45087823 0.17041591 -0.11839623 -0.17825782 0.01932208 0.07460712 -0.14560440 -0.15227149 -0.24222173 0.20218790 0.08989637 -0.05470458 0.17212825 -0.21638352 0.10137564 0.25074676 0.08223899 0.16428185 0.04699129 0.49975801 0.17701323 -0.14352290 0.29945600 0.08438452 -0.17982112 -0.15016659 0.29175410 -0.06965368 0.20995200 -0.27717093 -0.19948402 -0.01847049 -0.10855114 0.50439686 0.21003607 0.38302526 -0.13708672 -0.09495059 0.05534133 -0.03115667 0.37632966 -0.12265949 -0.36102700 -0.06988792 -0.30954826 -0.06386065 0.14324151 -0.01017279 -0.08232877 -0.46455494 -0.13612354 0.02034698
0.33987093 -0.25134003 -0.20183213 -0.44753084 -0.18548608 0.59169912 -0.09672596 -0.22392607 -0.13047181 -0.40921274 -0.41995576 0.03824657 0.15324874 0.01334208 0.01455720 0.03158659 0.25782421 -0.23811981 -0.14513806 -0.02840742 0.11819223 0.10537948 0.36868659 -0.12439509 0.27216426 -0.06447517 -0.23873998 -0.11186237 0.02857328 -0.12998770 0.07522901 -0.35951564 0.16914299 -0.30357867 -0.17539440 -0.24628866 -0.30794072 0.18069673 -0.20687316 0.14063066 0.13074179 -0.05119822 0.00366900 -0.12536180 0.00997368 0.02496626 -0.01038810 0.42236516 0.08911723 -0.15879591 -0.08962218 0.04429474 0.04866868 0.11987878 -0.14628570 0.02964647 -0.01182466 0.10114369 0.03543552 -0.17297316 -0.13345520 0.03443745 -0.08143460 0.00151760
-0.41342101 0.07613913 0.10887737 -0.07516118 0.00858879 -0.18244576 -0.04077101 0.06298153 0.16892514 0.34632772 -0.24843189 0.03901751 -0.27929106 -0.27088743 0.10784340 -0.13473342 -0.32801884 -0.03228641 -0.07416905 -0.07592057 0.05605625 -0.43436906 0.11942568 0.02015364 0.13233775 0.09369079 0.03353198 -0.20081005 -0.28781664 0.10988541 0.26634839 0.10635264 -0.09218842 -0.16572352 0.24853000 -0.03228460 -0.16905951 -0.23370291 -0.01034751 -0.01956493 -0.10638057 -0.06671560 -0.11951087 0.08403919 0.12402380 -0.31892055 0.18004543 0.07763348 0.04938111 -0.06523266 -0.01882941 -0.07337160 0.11464918 -0.04501658 0.16147591 0.07953679 0.14105557 0.01521871 -0.06508117 -0.20928137 -0.05428645 -0.23676088 0.03828329 0.12129671
0.24405250 -0.08342460 0.11658466 0.33281919 -0.04472803 -0.07589493 -0.12061530 0.22856872 -0.22485377 -0.12339550 -0.26416570 0.13398562 -0.38778985 -0.18282126 -0.21435285 0.25713724 -0.07539804 -0.01571626 -0.05980890 0.12607543 -0.10802387 0.20813698 -0.37862751 -0.06993455 0.31999773 -0.25724024 -0.15573244 0.35934129 -0.07024017 -0.18607439 0.35045046 -0.01485835 0.29784697 0.09543824 -0.33223677 0.32317540 -0.13693547 -0.27532592 0.24314177 0.32317266 0.09672944 0.00530178 -0.25740653 -0.11409348 0.09019272 -0.19905452 0.27224585 -0.10509732 -0.27994013 -0.16289151 0.04959305 -0.08799013 0.03720907 -0.10823750 0.08572949 -0.05959466 0.18452841 0.23818076 -0.02418350 0.11450958 0.10149314 -0.08524768 -0.11847921 0.18723129
-0.00166245 -0.12146638 -0.00563284 -0.08864520 -0.04132362 -0.14159484 0.11478718 0.21884674 0.07194082 -0.18017901 -0.03058691 -0.07735764 -0.01479611 0.06741311 0.01355626 0.09481598 0.03449696 -0.21995945 0.01702878 0.01451015 0.21972227 0.02687606 0.34974805 -0.06565002 -0.18328185 0.07351603 0.35731751 0.23834261 -0.13116793 -0.22697359 -0.09425573 -0.31210575 -0.20382781 0.21702708 -0.05690084 -0.12934336 0.13996889 0.01184458 -0.03089177 -0.31764561 0.06016644 -0.21382734 0.03626673 0.20549610 0.02812149 0.02868752 -0.14560916 -0.29978830 -0.11299568 -0.02663289 0.02574218 0.07535989 0.00162493 -0.08699687 -0.09382518 -0.18787329 0.00659255 0.27426809 0.26089790 -0.08208733 -0.28912237 0.14250983 0.02915801 0.02293024
0.08484117 -0.07588508 0.04994669 0.05334494 0.01159863 -0.04026185 0.00527394 0.13371471 -0.07881758 -0.18045594 -0.21344849 0.10983265 0.09809095 0.24142745 0.05581613 -0.27411303 0.02936947 0.11359136 -0.11680506 0.06740167 0.12950546 0.03968429 -0.10155205 0.02314308 0.48586255 -0.19423287 -0.10767489 -0.04505968 0.21919474 0.28245679 -0.03220692 0.09822623 0.16958289 -0.01902973 0.05029805 0.02077157 0.13590312 0.34603661 0.07241716 -0.21319972 -0.22380419 0.02172419 -0.36980692 -0.06825072 -0.18372539 0.00631779 0.08787718 0.23398884 0.07035036 -0.47027910 -0.18537457 -0.22754271 0.19442081 0.03371022 -0.07990529 -0.08476630 0.11855919 0.05249744 -0.20487878 0.18607274 -0.10599589 -0.17275243 0.00609205 -0.15461005
0.09513099 -0.19319692 0.08196329 -0.43116271 0.09445826 0.06087961 0.06660182 0.19296157 -0.03042451 0.04265988 -0.49424228 0.14469999 -0.13452338 0.02874310 -0.22087736 -0.15442088 0.32905707 0.01485188 -0.07120953 0.06301162 -0.35395890 0.23679037 0.16427290 0.43462458 0.25560954 -0.21062896 0.11956111 0.08931781 0.37529433 -0.14637943 -0.08611017 -0.28837940 0.18301623 -0.08168675 0.02152362 0.05935887 -0.17994328 -0.16796014 -0.14794452 0.36260930 0.06812159 -0.16997986 0.09960525 -0.19515698 0.15881293 -0.06053841 -0.06985999 0.03843376 0.05760952 -0.06462245 -0.06270490 0.04188658 0.21459521 -0.14736772 -0.00024846 -0.21448323 0.18501011 0.06208981 -0.11417300 0.17357099 0.27108824 0.13790734 0.09463040 -0.06704617
-0.50782669 -0.14142811 0.12211655 -0.19842669 -0.19141072 0.05974424 -0.00606045 0.18406753 0.11187904 -0.14771587 0.28410608 -0.38982475 0.06437919 0.06540824 0.29748186 0.09155426 0.29593521 -0.19233145 0.21478829 -0.12935260 0.26371467 -0.40838739 0.01479975 0.20423846 -0.17675902 0.07144269 0.44357747 -0.10005428 0.03587381 0.11138201 -0.27701765 -0.02266375 0.02004872 0.33353487 0.09140963 0.00728303 0.03602886 -0.05959488 -0.41947636 -0.32643366 -0.31729585 0.22236973 0.03073070 0.06853428 0.02501714 0.33233380 0.08929145 0.09496336 0.10108112 0.20883282 -0.00524078 -0.15718056 -0.25450459 0.20088057 0.05457902 0.16958310 0.12814103 -0.05676068 0.00700233 -0.02711405 -0.24448168 -0.19187242 0.12968117 -0.21603225
-0.01603301 -0.00004999 0.14363758 -0.04529927 0.10782215 -0.01775261 0.10477788 -0.05883155 0.11625168 0.04734444 -0.02012695 0.03244276 -0.09539307 0.04039485 0.04945776 0.00121487 0.17464449 0.00462773 -0.05105600 0.00141672 0.04700923 0.02753204 0.02779982 0.01400522 -0.11007912 -0.01842276 -0.02251969 -0.04839875 0.00064417 0.00027206 0.05859512 0.01456465 0.01386748 0.03109080 0.08064147 -0.04812360 0.03916288 -0.17675038 -0.02046591 0.12851064 -0.08058179 -0.01361408 -0.08040681 0.08836360 0.02843403 -0.04096387 -0.02409584 -0.00157524 -0.05608146 0.04928556 -0.00344562 0.04822580 -0.02630459 -0.02663894 -0.01109222 0.10689548 0.00971079 0.13382195 -0.04608564 0.00059715 -0.02275142 -0.09453192 -0.04034771 0.05061011
-0.40617499 -0.23089123 0.13925037 -0.31856242 0.22630465 -0.22331055 0.19090672 0.01555253 -0.19616908 0.13976997 -0.13888890 -0.09894282 -0.21548556 -0.16730867 -0.14317574 -0.22759525 -0.05619659 -0.04774639 -0.00662042 0.00693394 0.19871166 0.45149994 -0.14987580 0.00601239 -0.06395001 -0.17467150 0.02891766 0.09954549 -0.11908270 0.20603883 0.06637958 0.04319979 -0.14749563 -0.13081218 -0.10813934 -0.27685344 -0.17707334 -0.01864650 -0.03926782 0.01565035 -0.21528468 -0.11566556 -0.21416499 0.29224449 -0.18637152 0.18186852 -0.01500885 -0.51246142 0.08414565 -0.13901734 0.15229219 0.07970196 0.02788899 -0.02195963 0.15642707 -0.04885440 -0.00095658 0.21219459 -0.12119937 0.23607650 -0.28014585 0.25101912 -0.13583189 0.33570802
0.26246673 0.03068470 0.40999606 -0.22612546 -0.59666532 0.02327455 -0.06128575 0.03337697 -0.35008347 0.17442060 -0.08559243 0.04127683 0.26566097 0.40094927 -0.51728183 0.05835285 -0.12076616 -0.14514047 0.16326016 0.36374041 0.05153177 0.23701729 0.07940665 -0.25807315 -0.43078905 -0.18724792 0.33995599 0.10493517 0.06504990 -0.43549624 -0.64370167 -0.10138677 -0.19843750 -0.24642429 -0.10350498 0.10945928 -0.06923143 -0.10365361 0.51797891 0.31810987 -0.18454787 -0.14350869 -0.35378161 -0.16361657 -0.11521330 -0.19979121 0.04034458 -0.27784500 0.01041943 0.01281884 -0.10856591 0.16395234 -0.52550769 -0.16819526 -0.04084018 0.54232860 -0.56799901 -0.06306481 -0.31690437 -0.35403830 -0.01336174 -0.55471402 0.28337309 1.05964756
-0.14149252 -0.06640057 0.20876856 -0.25591412 0.54446495 0.16082504 0.25901979 -0.32601476 0.06045005 0.36925831 0.03362685 0.22550449 0.13523889 -0.13775964 0.20313388 0.50642365 -0.15201361 -0.08958064 -0.30102617 0.53073519 -0.16118260 0.18927318 0.16766927 -0.06351545 0.25885648 0.02444928 0.25803173 -0.01093181 -0.09632317 0.10197366 -0.29444224 0.42736483 0.22587961 -0.17775558 0.21429169 -0.01852631 0.07623587 0.10781011 0.16633998 0.05752773 -0.10748454 0.16571023 -0.05288795 -0.00703952 -0.11215385 -0.32108548 -0.14429769 0.30916449 0.05924985 -0.15760736 0.31726983 -0.21951376 0.08202790 0.15070757 -0.13116221 0.20200425 0.17726633 0.42783439 0.03194666 -0.02074086 0.11312080 0.12026007 -0.04362457 -0.18802080
0.32653645 -0.16374342 -0.26258805 0.03798996 0.39434233 0.35314408 0.18402097 0.13687932 0.47796690 -0.03577219 0.18089858 -0.03985856 -0.33451456 -0.07470618 0.26285639 -0.07882506 0.05844601 0.24451698 0.01040723 0.11545444 0.27063930 -0.03712237 -0.11261568 -0.18404579 0.10048011 0.17350066 -0.56529486 -0.17639402 0.31823298 -0.05555289 0.43182871 -0.14939904 0.20046635 -0.40172055 -0.11361245 0.33221880 0.24081793 0.24851887 -0.12471338 -0.12141949 0.32129499 0.65391409 0.55654752 0.04458301 0.31586769 -0.10644592 -0.19613333 -0.11262407 -0.18475866 0.30811387 -0.15428042 -0.43637913 0.60622257 0.47168031 0.13985910 -0.40503243 0.37756866 0.32638463 0.14344107 0.22883239 -0.28601438 0.66179627 -0.07677237 -0.63653845
-0.01057469 -0.17869358 0.12769382 -0.14605126 -0.03412756 -0.21723419 0.11190079 -0.11587773 -0.07104404 0.10619246 0.11527408 -0.18987443 0.00701778 0.10616205 -0.20935673 0.06054838 0.17508183 -0.01021440 -0.23017208 0.10448860 -0.15823014 -0.21185827 -0.14137496 0.28809142 0.04481906 0.00790534 0.03899347 -0.01818869 0.17891496 0.10232901 0.33251703 0.16472867 0.03335273 0.15320040 -0.12939888 0.18420710 0.22490938 0.17298546 0.12245652 0.01754559 0.12950411 0.21086970 0.17354789 0.00895420 0.07662902 0.03240073 0.13887079 -0.00923228 0.32016906 -0.11203837 -0.17414308 0.01159942 0.17822118 0.09814852 -0.08649790 0.05171581 -0.10114734 -0.02438982 0.14163813 0.10576342 -0.29394937 -0.17493892 0.13814497 -0.15426792
0.09933839 0.28463393 0.05242027 -0.09067921 -0.14299938 0.08285067 -0.19111305 0.07781523 0.13543783 -0.04176521 0.32831439 -0.11497303 0.17165117 -0.06744602 -0.17861819 -0.09722631 0.15039259 0.41536823 -0.12904865 0.02251309 -0.52631307 -0.13138065 0.23153770 -0.40944785 -0.08301497 0.13090499 -0.14327814 -0.09394610 -0.09304606 0.01022349 -0.16280736 0.02025032 -0.26817033 0.15483297 -0.22651188 0.17233931 -0.11209539 -0.04942082 -0.04698440 -0.01063213 -0.38378978 -0.47801727 -0.12972230 -0.13252375 -0.05672504 0.31233466 0.26260114 0.37050268 0.19935136 -0.00352961 -0.32882622 0.10338902 -0.21304567 0.04001843 -0.30922779 -0.15965995 -0.29891109 0.06008901 -0.12900510 -0.02535173 0.15229337 -0.05373970 -0.44468078 -0.04388244
0.12446600 -0.53657204 -0.36460942 0.19016059 0.39608571 0.05211287 0.31147978 0.16001244 0.29358399 -0.35098720 0.15473072 -0.55434901 -0.50220442 -0.29157171 0.44393212 0.11883113 -0.07963022 0.43131721 -0.14223917 -0.10558913 0.14380211 -0.04084986 -0.10233518 -0.36773238 0.32987025 0.59048742 -0.50508863 -0.11874899 0.16847637 0.27723414 0.33800319 0.02868764 -0.04967074 -0.31009567 -0.06840638 0.40328401 -0.00609671 -0.01990258 0.01620566 0.14370289 0.35554388 0.24176072 0.50546771 -0.09683007 0.38384265 -0.19757365 0.02008116 0.09423461 0.10446207 0.55675316 0.04983900 -0.50205916 0.13261020 0.56991094 0.01245487 -0.59515923 0.25866753 0.53496975 0.15067284 0.59080625 -0.07718892 0.28600255 -0.08195054 -0.64317530
-0.02675773 0.20370091 -0.12592959 0.08242662 -0.11590521 0.05548120 -0.15865664 0.03921072 -0.11920042 -0.20056126 0.01797074 0.06323273 -0.31594592 -0.12666720 0.07718156 0.07433290 0.02252954 0.13493639 0.14999944 -0.28141895 0.10514880 0.02277054 -0.26260877 0.34843320 0.02920077 0.02608144 -0.01811047 -0.24056764 0.02338778 0.10900953 -0.24640422 -0.28494322 0.01479218 0.33133692 -0.11075968 0.22156449 0.23103119 0.00526453 0.03620297 -0.32347515 0.19089310 -0.07412816 -0.08825441 0.23556086 0.25711843 0.29887849 0.12224657 -0.08365873 -0.18799217 0.11214712 0.23949778 0.04209146 -0.36695725 -0.34052336 -0.06820065 0.01836975 -0.13797116 0.00293355 -0.22748083 0.26583919 -0.15331885 0.16576007 0.31758517 0.15515931
-0.33156711 0.08273462 0.02613283 0.03138227 -0.06718402 -0.04598226 0.08602136 0.13970330 -0.26263386 0.25767884 0.07967091 -0.21817379 0.48456961 0.11325063 0.55475616 -0.23181804 0.06100611 0.14804508 -0.27578184 -0.33419189 0.00140983 0.01660207 0.05891467 -0.22367525 0.00671735 -0.22582850 -0.10842694 -0.04189024 -0.25071892 -0.08078785 -0.02313131 0.36916876 -0.27721268 0.27191660 -0.01451078 -0.19959050 -0.01314802 -0.17216019 -0.27584589 -0.11329007 0.42144006 -0.60376197 -0.34110317 0.12726481 -0.46993667 0.02617984 0.04811804 0.39795956 0.21129975 0.05561286 0.25761396 0.18942866 0.09115434 0.20658438 -0.34092230 0.36101735 -0.11569390 0.35976896 -0.15203761 -0.20561327 0.21635458 0.03720715 -0.23366998 0.08058471
-0.00949172 0.08982054 -0.01087263 0.14482205 0.09734587 0.22353481 0.27743754 0.24421762 0.02794406 -0.01880373 0.08414207 0.40047646 -0.28495777 0.18742825 0.17139351 0.04061131 0.03074174 0.35052553 0.10450979 -0.10966645 0.03436304 -0.34069145 0.33843884 0.27269852 -0.48053238 0.06594921 0.15771841 0.19804300 -0.07202847 0.00229766 0.08889478 -0.03361852 0.01087144 0.01058812 -0.03045800 0.11249062 -0.30185863 -0.22877699 -0.15275055 0.17241706 0.03952827 0.15136009 0.52816135 -0.17562094 -0.04034753 -0.21372314 0.13475241 0.17045513 -0.51892263 -0.26731411 0.30475935 -0.03733940 0.04733820 0.21393363 0.16885960 -0.09007743 0.43057960 -0.31047827 -0.07670975 -0.17934580 -0.13151431 0.23827218 0.02068239 -0.13516022
-0.04204549 -0.00814134 -0.06902468 -0.16183428 -0.15952531 -0.50277483 0.17454849 -0.16877477 0.11546940 0.43102843 -0.18683451 0.06845310 -0.02295558 0.15707786 -0.02444872 -0.10706385 -0.13630988 -0.19996123 0.17758773 -0.23327711 -0.04996161 0.08982281 -0.23148818 -0.07067779 -0.09286423 0.26171947 0.04015156 0.02260892 -0.24805719 0.14690536 0.16865619 0.08038390 0.09834059 0.09544317 -0.03834549 0.06516312 -0.10597353 -0.20144676 -0.06475786 0.22104585 -0.06313843 0.31335852 -0.51309675 0.12188634 0.12735927 -0.26383206 -0.29286802 -0.26034746 0.20479999 -0.09756265 -0.25800931 -0.36227372 -0.01886521 -0.26093116 0.15721235 -0.14855354 0.09518427 -0.24523766 -0.08629741 -0.02214121 0.30065405 0.05478715 0.41600728 -0.06718607
0.21253614 0.49932685 0.23287930 0.21473363 -0.25832561 -0.11505282 -0.59611350 -0.20624003 -0.32209754 -0.44267443 -0.53878367 0.41510022 0.51715201 -0.01360695 -0.54388678 0.40631297 -0.01201024 -0.23221183 -0.01562376 0.17368746 -0.27852833 0.22205254 -0.00422162 0.25135490 -0.15063377 -0.34022877 0.20641695 0.09936439 -0.01315425 -0.11738810 -0.40604135 0.05484663 0.28198987 0.34444445 0.51445717 -0.21338610 -0.18272701 0.29231969 -0.34472892 -0.07483649 -0.00908154 -0.22460635 -0.53724116 -0.10665989 -0.55888361 0.41868290 0.26488447 -0.01806309 0.00304015 -0.24555184 -0.39967614 0.58007973 -0.21884565 -0.37618312 0.06824878 0.13948630 -0.19519687 -0.33920106 -0.16815053 -0.58505398 0.17201926 -0.49318770 -0.43916348 0.58764702
-0.13257501 0.26670963 0.22104050 0.04661729 0.16607943 0.24814998 0.16062859 0.10279293 0.07241264 -0.14561126 -0.08241390 -0.29579842 0.05903117 -0.21683574 -0.31651348 0.16406456 0.18537758 -0.02015299 0.17807177 -0.42203999 0.07197422 -0.16423282 0.05146977 -0.07149220 0.13395849 -0.17979968 0.03491743 -0.01185082 0.19318177 0.16105075 0.11594305 0.36240825 0.14238200 -0.19816792 0.13967748 0.08466268 -0.16818585 -0.10801553 0.20114705 0.34425253 0.13271865 0.35193476 0.06100196 0.25589943 0.08009934 0.20088461 0.10383768 0.23592490 0.13988888 0.14788744 0.09256958 0.11326129 -0.00461461 -0.39344525 -0.08748668 -0.08355990 0.26208773 0.06908382 -0.18267375 -0.05033316 0.06759804 0.50932258 0.21099104 -0.14078857
-0.06194398 -0.18736172 -0.09797243 0.05960316 -0.06210016 0.01434089 0.26846132 0.20554417 0.20685242 -0.07901665 -0.06348003 0.25743285 -0.00445941 -0.26081979 0.12873802 0.03085500 -0.11231338 0.28977260 0.03559084 0.07502943 0.23344094 -0.34762055 -0.19739880 0.30084935 -0.04789950 -0.11584857 0.06094687 -0.15476936 0.03058814 0.05902799 0.00397889 0.05445716 0.12508893 -0.07958440 0.25586307 0.10100258 -0.00378084 0.14203916 0.02959803 0.09095992 -0.25595012 -0.08111680 0.02781762 -0.01041338 0.03480449 -0.01772557 0.05015920 -0.07382879 -0.16358483 0.12935334 0.11977258 -0.17259108 0.22847228 -0.16254264 0.12402000 -0.22592890 0.12191137 -0.44426563 0.00627537 0.07420652 0.11023436 0.14358726 -0.27227512 -0.04868383
-0.09099375 -0.31151032 0.00316763 0.08024524 0.09659373 0.27970222 -0.10189519 0.19900079 0.03820281 0.23731869 0.03728000 0.49821877 0.13061808 0.14482322 -0.27635425 0.27765048 0.05992895 -0.28200883 -0.23006754 -0.16975348 0.23203985 -0.11341118 -0.06210457 0.10995896 0.39443776 -0.06281418 0.02152578 -0.02616702 -0.29583320 -0.05976354 0.07434101 -0.22704734 0.47869068 0.01369829 0.50206679 -0.36280748 -0.26597753 0.14113709 0.20789471 0.03636431 0.15201005 -0.15155992 -0.07143099 -0.10506258 -0.10452960 0.44293004 0.38920498 -0.35035065 -0.12815410 -0.12810636 -0.14263235 0.20444886 0.15241335 0.06894419 -0.00191096 0.21863891 0.07647602 0.35039338 -0.23102532 0.04434719 -0.02707532 0.02724160 -0.24575651 0.03456247
0.18366493 0.01920800 -0.22458158 0.11130528 0.35396266 -0.26127055 -0.01273472 -0.15778668 0.27669454 -0.33023337 -0.07815015 -0.29791582 0.16793904 -0.08149205 -0.07144979 -0.29047832 -0.12125500 -0.15162390 -0.22662470 0.19146799 0.29330325 0.35808563 0.22208172 0.02557402 -0.09773470 -0.12434509 -0.31042105 -0.14840388 0.18691893 -0.20233068 -0.00293780 0.08068167 -0.01537698 -0.05061167 0.04426160 -0.16113688 0.15816215 -0.08357222 -0.27130511 -0.48019257 0.15809625 -0.30991051 0.51902509 0.06975257 -0.05120070 -0.12727375 0.10291287 0.15396038 0.16010825 -0.21537526 -0.11353864 0.12926295 -0.00955814 -0.19105084 -0.16677774 -0.05736414 -0.25443363 0.08355945 -0.20717105 0.10543332 -0.14799987 0.09086286 -0.23272558 -0.17279780
-0.01595734 0.12109091 -0.04661629 -0.14208025 -0.12814021 0.02782558 0.09233806 -0.21418354 -0.15910831 -0.20969963 -0.31742674 -0.23621032 0.22291765 -0.22902632 0.15417327 0.08305612 0.28869352 -0.35634938 0.05632552 -0.19451474 -0.13366321 0.15978217 0.35366139 0.09554254 0.38493320 0.16599050 -0.19679259 0.51722074 0.18360949 -0.15493442 -0.00783169 -0.16055828 -0.27743226 -0.02902908 0.04780244 -0.23209754 -0.05583575 0.47974139 -0.17809203 0.26687258 0.15535238 0.32516512 -0.01681232 -0.01447909 -0.33531010 0.20964247 -0.33309445 0.26751572 0.05558948 -0.02179676 -0.05619920 0.07546771 0.02764277 -0.08083749 -0.03367973 -0.34772444 0.03228881 -0.32626477 0.27551910 -0.06153303 -0.17212108 -0.33715317 0.05115746 -0.19517142
0.27059665 -0.02430709 0.06067179 0.13411196 0.04575537 -0.05486342 0.07786295 0.20791678 0.03470306 0.21250881 0.24943632 0.03242610 -0.18062606 0.11069870 0.16337132 0.05600601 0.01007353 0.11416430 -0.13704383 -0.15885955 -0.10474610 -0.39581364 0.39782706 -0.26183164 0.25304529 0.01509636 -0.11586200 -0.33908522 0.21077698 0.04675122 0.36173159 0.04280354 -0.03453039 0.23427390 -0.20893072 -0.07278837 -0.11981155 -0.38030130 -0.03341632 -0.22286105 0.05529207 0.06298175 -0.04571664 0.19489448 0.17156631 0.01313570 -0.26637009 -0.08693522 0.11553532 0.09179802 -0.02461015 -0.12441037 0.19001387 -0.05032168 0.08829680 0.06142463 -0.16915655 -0.34990519 0.36667329 -0.09513374 -0.07397140 -0.25436193 0.09671546 -0.22259831
-0.33096713 0.02784192 -0.08931848 -0.14827023 -0.10412039 -0.11191595 0.03237001 0.15352674 0.20177111 -0.04282135 -0.05121780 0.26933932 0.03814223 0.08804156 0.12323051 -0.06706189 -0.01975147 0.00493043 0.16961433 0.06632379 -0.24806333 -0.51183468 -0.27208281 -0.01770212 0.09534845 0.13647303 0.11571851 -0.12987241 0.20675474 0.07237159 0.25474030 -0.21427007 0.14988171 0.49786419 -0.27243519 0.34275153 0.05651490 -0.24633914 -0.18441862 -0.20563163 0.04504884 -0.45849830 0.35497382 0.03123514 0.24207003 -0.17287406 -0.14392744 -0.13329092 0.04066496 -0.09267703 0.33204001 -0.06611885 -0.05980791 0.20175816 -0.02839540 -0.19460389 0.06956635 -0.09431779 0.27478114 -0.14685830 0.32071599 -0.15857421 -0.21476658 -0.12701525
-0.23648654 0.25096285 -0.34123662 0.07032467 -0.28160492 -0.03865722 -0.04990662 -0.15137251 -0.09876034 0.58730000 0.50793338 0.05833375 0.20252694 0.22487178 0.13820960 -0.36401156 0.25106671 -0.25357348 0.39219379 -0.21204679 -0.14363340 -0.06929840 -0.26473606 -0.03148207 -0.15400073 0.01841720 0.28425825 0.28708312 0.27898911 0.08293017 0.13374360 -0.04077587 -0.14165606 -0.31561309 -0.13097888 -0.34350827 0.36718845 -0.04336192 0.09551410 0.17798166 -0.15996543 -0.13515410 -0.19056542 0.25376591 0.03872972 0.05852083 -0.08055095 -0.08567508 -0.18507920 -0.35579500 0.11423013 -0.37387514 0.22266397 0.11387804 -0.24225250 -0.25197053 -0.01640644 0.08419390 0.07666951 -0.08285733 -0.02348167 0.10983041 0.20635410 0.02890118
-0.04149765 0.04445778 -0.15622056 0.07520588 0.14759128 0.07196123 0.00161245 0.05341108 0.00244049 0.11995421 0.01125299 0.02156109 -0.00336598 -0.09977261 0.06556979 -0.07501590 0.08356208 -0.03668091 -0.12427209 -0.02189215 -0.17747854 0.01240959 -0.03219690 0.00393180 0.09666161 0.16943441 0.01296175 -0.00767523 -0.12153965 0.03509122 0.06970951 0.01198459 -0.09068059 -0.11138881 -0.06890456 -0.05943580 -0.05692269 -0.09584969 -0.06956664 -0.02040546 0.04709188 0.08696231 0.07103407 -0.02196410 0.00841533 -0.10527487 -0.09804772 -0.02722481 0.00824158 -0.11403238 -0.05619223 -0.01094603 0.00888886 -0.10509758 0.12446169 0.05149930 -0.04000729 0.05811058 0.08646277 -0.03197591 -0.01926423 0.03848502 -0.16112225 -0.04398308
0.02604090 0.13913001 0.07108530 -0.23647781 0.19995233 0.20482926 0.39563894 -0.32956377 -0.02909077 -0.02465628 0.33248127 0.06415043 0.03132600 0.18462549 -0.01583692 0.38044456 -0.01067295 -0.37605965 0.16337930 0.33237165 -0.16600810 0.34998548 0.37756568 0.26929066 -0.12503152 0.08112312 0.26603851 -0.21097809 0.45512030 0.06048111 -0.00710295 0.32990649 0.20901233 0.20373115 -0.01939479 0.11406245 0.15402180 -0.10908758 -0.12047555 -0.18851689 0.34968689 -0.22689268 -0.17470084 -0.12563731 -0.09840702 -0.07769617 -0.11198915 0.08383085 -0.02383432 -0.52295923 -0.35628012 0.11763926 -0.09538902 -0.00391328 0.13104932 -0.05023353 0.08168907 0.01073575 0.06453261 0.03674133 -0.04487217 0.38295943 -0.34242910 0.18326627
0.01351388 0.09286874 0.39035600 -0.23678274 0.07031150 -0.01844445 0.07315804 -0.32428673 -0.13556029 0.00515375 -0.32010543 0.02190686 0.10234790 -0.12432358 -0.27593771 0.37978917 -0.15222012 0.04225222 0.09016445 0.01015890 0.03140154 0.18213880 0.17508243 0.38754934 0.17036025 0.20403963 -0.06403244 0.20449534 0.32091582 0.35291401 0.12785071 0.03718755 -0.15818498 0.02221167 0.26833400 -0.14944120 -0.35990927 0.09806125 -0.01463957 0.02004907 0.23556502 -0.07149689 -0.00487246 0.16704358 -0.26679924 -0.00885623 -0.27240574 0.64920151 -0.30876267 0.21148974 0.10545314 0.07952656 0.10355151 0.15691918 -0.18024449 0.00371966 -0.08390976 0.08356968 0.13357975 0.31476539 -0.00508455 0.01387589 0.31932545 -0.09056395
-0.08975743 -0.16097446 0.22097200 -0.01536537 0.16817649 -0.13628006 0.25602761 0.53482229 0.07204033 0.04389879 0.51412702 -0.15840088 -0.01085918 0.02834564 0.16723555 -0.38177976 0.20990470 0.22739519 -0.14817636 -0.28752825 -0.24983302 -0.03904287 -0.18698043 -0.25808206 -0.06025789 0.18134351 -0.10576130 -0.31708300 0.07045484 0.05271055 0.05386681 -0.09807172 0.11057995 -0.16645059 -0.44167408 0.02984812 -0.33107379 0.00935078 0.19808111 0.14918177 -0.23165993 0.32372788 0.43389803 0.10526401 0.26671886 0.12654124 0.09675919 0.10501641 0.31355917 0.22955805 0.06953049 0.21261938 0.07315641 0.09164692 0.00325627 0.02040738 0.22035991 0.08558410 -0.03474512 -0.28371251 -0.01220740 -0.30737624 0.34256750 0.20286024
-0.56209528 -0.25356591 0.18220292 0.22585595 0.00990100 0.48229796 -0.03559901 -0.04414916 0.26446646 -0.18124968 0.08383805 -0.00390009 0.15369239 0.36428747 -0.17074828 0.03310699 0.51307964 0.06908440 -0.65896010 -0.08819108 0.06482349 -0.25643894 0.04001313 0.12737814 0.41636580 -0.13176812 0.07768902 0.54108518 -0.06353258 -0.04640684 0.27028459 -0.05765698 0.03125172 -0.09992360 0.47236601 0.03844248 0.11043326 0.25978082 -0.23057853 0.44913515 -0.33962649 -0.06560986 -0.36070675 0.00430129 -0.19992675 0.33300361 -0.22724448 -0.08086016 0.27204862 0.49772376 -0.53418016 -0.11768403 0.36501172 -0.09987732 -0.29663828 -0.24049436 0.27652365 0.09313454 -0.38324398 0.53605592 -0.09502523 -0.15552676 -0.19310980 0.47619355
-0.00927698 0.23294951 0.33202806 -0.21736994 0.19123003 -0.02200142 -0.04606314 -0.18887620 -0.08200243 0.18658026 -0.13566434 -0.06989031 -0.07075891 0.02145398 -0.08346494 -0.14681740 -0.05647879 -0.10097231 0.25017330 -0.19654325 0.01114850 -0.13890357 -0.14649545 -0.25821298 0.24853159 -0.06725130 -0.29377413 -0.08117951 -0.02074328 -0.22722030 0.04380778 -0.06860673 0.27390692 -0.19659472 0.14905770 0.13342087 0.21637012 -0.28444654 -0.10701368 -0.11809035 -0.03040117 -0.06208848 0.00750760 0.01335732 0.00062115 -0.14681466 0.08366255 0.04640127 0.28554013 -0.04100807 -0.10935522 -0.04298439 -0.20456201 -0.25078702 0.05820839 -0.25054750 -0.46790797 0.01813442 -0.28795251 0.06202297 0.02896485 -0.08951838 -0.21772213 0.04873400
0.15389152 -0.01919100 -0.20466347 -0.13495067 -0.06084672 -0.12862454 -0.19231308 -0.12371751 -0.13053623 -0.10307480 -0.14618272 0.46175390 -0.49758345 -0.11188230 -0.05690371 -0.01451596 -0.13202654 -0.24260083 0.21176656 -0.00174492 0.03181994 -0.08492723 -0.05765247 0.24312025 -0.21465588 0.13960099 -0.24339041 -0.33273807 -0.10920016 0.03700114 0.10862800 -0.07171603 -0.00735909 -0.22094864 0.26505631 0.31205684 0.28728017 0.19602495 -0.01491247 -0.21531039 -0.01831788 0.14883612 0.10050491 -0.15839660 -0.07761568 0.11101271 -0.15823591 0.19270252 -0.19269483 -0.14396289 0.06127099 -0.04219749 -0.00565646 0.33154255 -0.04022643 0.01474703 -0.15254050 -0.46819624 0.38830504 0.39885491 0.21594293 -0.13344584 0.18912260 -0.25681728
0.04612982 -0.39014584 -0.00829227 -0.01185076 0.22361319 0.02728140 0.02440101 -0.16902673 0.05831037 0.07825925 -0.29505426 0.01573355 -0.27846435 0.15401760 -0.00443993 -0.32607135 -0.47064820 0.30638790 0.12916565 -0.13383739 0.50090569 -0.08552254 0.56708634 -0.00547959 -0.01893217 -0.04453026 0.15958373 0.11410088 0.00039935 0.03134498 -0.29318970 0.56723005 -0.13565584 0.26070294 -0.08247160 -0.15756308 0.37036267 0.12412292 0.10310017 -0.25858292 -0.32808629 0.08797821 -0.28887102 -0.12489973 -0.05731260 0.12396239 -0.45226309 -0.47246033 0.05488503 -0.46210009 0.22661865 -0.14669256 0.13054396 -0.02379604 -0.11947968 0.12407301 -0.13198826 -0.15947314 0.22806688 -0.08355822 -0.02503585 -0.18046129 0.05514103 0.12476505
0.20489906 0.17798634 0.09794646 0.17609952 0.12501472 -0.03218193 0.00181353 -0.04730883 0.20593451 -0.28711894 -0.01168518 0.01457072 0.11313678 0.10176595 0.06809883 0.45462894 -0.20492341 -0.18443660 0.16411652 -0.07604223 -0.05915081 0.14634083 0.01986211 -0.18933901 -0.09900524 0.13679780 -0.41124731 0.00480980 -0.00751368 -0.00506258 -0.11874431 0.24865900 0.02325762 -0.14014192 -0.11629792 -0.16646604 0.31466061 -0.24160789 -0.19486721 -0.22040237 0.05336912 -0.20254889 -0.02773162 0.17472519 0.05609931 0.16847247 -0.40602112 0.38497379 -0.34326026 0.04556941 0.27075320 -0.25347438 0.10513999 -0.10472854 -0.02651505 -0.11311273 0.03198824 -0.02645519 -0.10002965 0.04714362 -0.04906981 -0.23908813 -0.09418745 -0.28405789
0.43824437 -0.19723324 -0.00379595 -0.20228501 -0.09381271 -0.09729520 -0.23469515 -0.34123442 0.14180116 -0.26751992 0.10826401 0.00408894 0.35552052 0.00625020 -0.03882926 0.04760706 0.15444914 -0.24312103 0.10158037 0.07277179 -0.13391094 0.28348428 -0.12067053 -0.23313902 -0.09887271 0.23258254 -0.18027326 -0.11632255 0.35553566 -0.07757623 0.01207445 -0.14444064 -0.34036577 0.14146355 -0.12931611 -0.35459855 0.17194380 0.01153815 0.46692616 -0.07251854 -0.15365666 0.11256804 0.12617935 -0.21871699 0.22118770 0.53128028 0.15907538 0.14503527 -0.32867962 0.01919506 -0.21561655 0.14280799 -0.23234950 0.30167758 0.21449773 0.00737147 0.02232178 -0.02770702 0.08725727 -0.11255052 -0.05687828 0.29566333 -0.25975347 -0.34365597
-0.14407897 -0.14971668 -0.09400648 0.14959946 -0.16040368 -0.03315301 0.01147665 0.11236145 -0.12583819 0.13014951 -0.13510546 -0.20312235 0.14000879 0.12973066 0.05720948 0.17701112 -0.26440549 -0.09596695 0.11149637 0.21639824 -0.24135786 0.26107544 -0.22069430 0.09574918 -0.00294784 -0.14419708 -0.12625298 -0.12779768 -0.46256602 -0.52962679 -0.24382016 0.30198902 -0.04218211 0.03571707 0.50426883 -0.11362522 -0.05506900 0.00280075 0.09267658 0.11354372 -0.35085681 0.03767227 0.02462220 0.32627481 0.00064645 -0.28469017 -0.01352312 -0.16305859 -0.00338882 -0.20135601 0.06743978 -0.10285395 -0.38680914 -0.10088556 -0.17341255 0.33511347 0.11391340 0.17277449 0.04648783 -0.09661766 -0.03317928 0.02317312 -0.23930290 0.10578202
0.04076283 0.08177701 0.13277730 0.28130221 -0.12192737 0.01964102 0.04378929 -0.13482063 0.08935981 0.31316662 -0.06756712 0.22291951 -0.35434794 0.18021625 -0.26297089 -0.11914027 -0.16307299 -0.23009674 0.16140157 0.02331803 0.03588659 0.39737681 -0.17965855 0.05091923 -0.13023068 -0.45215434 -0.09494362 0.05133323 -0.24238861 0.06564520 -0.17649533 -0.08491925 -0.00977895 0.17173706 0.06240601 0.05199656 -0.36518857 -0.07619514 -0.14963965 0.04532922 0.09642546 -0.39636612 -0.05093762 0.30721322 -0.09623630 -0.02983519 0.26387015 -0.04073421 -0.03504511 0.00232526 0.12091403 0.26105899 0.06689835 0.03229942 0.14446121 -0.11839920 -0.17078696 0.13381727 -0.04466761 0.23293200 0.16901568 0.21483165 -0.21986169 -0.19706137
-0.12261560 0.08475083 -0.20442194 -0.02477797 -0.19777030 -0.17804432 -0.03353671 -0.32407075 -0.08095828 0.10041784 -0.25352010 -0.44991043 0.01480581 0.28738135 -0.65633452 -0.19792338 0.20690200 0.03892149 0.02830432 -0.02465738 0.01484325 -0.35967296 0.00755881 -0.07101691 -0.10277186 0.06077639 -0.10042238 0.25508696 -0.18223327 -0.13961877 0.05997263 0.03546844 -0.15995325 0.04027752 0.01377445 -0.12832832 0.19404434 -0.12802778 0.07679547 0.70716012 0.13365646 -0.02477236 0.00186073 0.45706329 0.21056388 -0.30905974 -0.00857165 0.34155396 0.00755976 0.02127627 0.20741096 0.00657349 0.06251801 -0.11605235 -0.09715874 0.27393192 -0.18097399 -0.16471569 0.05887705 -0.40173247 0.03949035 0.47393149 0.45325151 -0.07904666
0.10804949 0.04730661 0.06889711 -0.15980642 -0.11687573 0.17595951 0.12675510 -0.27511886 -0.15505451 -0.18725793 -0.19737147 -0.24550872 0.28072178 -0.25443301 0.38750783 -0.19639349 -0.08418424 -0.00109495 -0.08296742 -0.01072614 0.27121919 -0.10577014 -0.09702108 -0.29312202 -0.03386462 -0.24916846 0.03725727 0.14718759 0.08854125 0.10187906 0.02286297 -0.11010350 0.24744165 -0.45188987 0.10341249 -0.38675505 0.38645032 0.05471320 -0.10760871 -0.08358134 0.01303297 0.04403304 -0.00962272 -0.35670042 -0.02113890 0.35558856 0.10364042 0.17368571 -0.15382652 -0.00517119 -0.39591321 0.21270038 -0.25607952 -0.09335350 0.22553113 -0.12228864 0.00139835 -0.34136009 -0.11703523 0.18743747 0.01138960 -0.13224874 0.17655466 0.06492375
0.05488209 0.17858897 0.30655867 0.13908452 -0.14221548 -0.11654022 0.00155436 0.11820078 -0.19549094 0.23853441 0.24657829 0.06158863 -0.12054721 -0.20171723 0.03075625 -0.20655788 -0.29678756 0.15662771 0.20471515 0.29589307 -0.11303705 0.17864448 -0.09794465 -0.02254103 0.05899189 -0.32920370 -0.14024241 0.24529196 0.01657376 0.29698253 0.03794867 -0.02814525 0.00864537 -0.12983273 0.09705265 -0.20093234 -0.15840156 -0.00721431 -0.22278057 -0.03923522 -0.11956951 0.18608429 0.00350919 -0.31803691 -0.15017124 0.19628325 0.06213243 -0.09766243 -0.08344904 0.32974726 -0.02292828 -0.09088846 0.13610782 -0.32230857 -0.19130100 -0.01409361 0.23589447 -0.08762475 -0.17739679 -0.24085768 0.09699564 0.17150398 -0.20465836 -0.20046107
0.16748457 0.06410690 -0.05483959 -0.18159866 -0.04269266 -0.09528875 -0.00083620 -0.01760381 0.02623098 -0.10925163 0.37787625 0.36977974 0.10133326 0.01421137 0.14163950 -0.08271594 -0.37818995 -0.05592725 -0.17415254 0.06752869 -0.41542423 -0.15395816 0.16590090 0.39179963 -0.26346684 -0.26149011 0.16043869 -0.04162614 0.30151865 0.17744640 0.13511409 0.28758600 -0.47557914 -0.08361238 -0.17242646 0.19897084 -0.24878916 0.13889462 -0.26315966 -0.29123077 0.39979529 -0.02451027 -0.04535137 -0.25932634 -0.29131851 0.31681365 -0.12759158 0.06990216 -0.13404839 0.05880502 -0.08059720 -0.09197710 -0.11211319 0.10000692 0.41301703 0.31034139 0.05502024 -0.08884391 0.28581274 -0.07089149 -0.07983799 0.18886864 0.10647301 -0.07838306
-0.01772649 0.12627508 -0.32035974 -0.11279670 -0.21991499 0.01780111 0.02841677 0.05768997 0.15386307 0.03610015 -0.38604397 0.07295776 -0.30580527 0.06060881 0.16722405 0.02518073 0.41743818 0.14659579 -0.03223467 0.17299722 0.24759877 -0.24711491 0.12534088 -0.27124420 0.07586051 -0.01666986 0.13304204 -0.19508371 0.13297710 0.11044515 0.27723289 -0.26311049 -0.11967178 0.04826190 -0.11926285 0.00482404 -0.01988381 -0.03073543 0.22174236 -0.13267301 -0.23691460 -0.18224096 -0.20225804 0.07028825 -0.06130151 -0.00477654 0.13362977 -0.04030564 0.17822997 -0.37971365 -0.11603596 -0.15174574 -0.00848769 0.24582019 0.04608038 -0.00356048 0.16768332 -0.23844391 0.14666004 -0.08189914 0.09419058 0.03399608 0.19388783 -0.27198678
0.23838697 0.05018871 -0.23020467 -0.22416355 -0.17175713 -0.02393169 -0.64520270 -0.01386571 -0.07980586 -0.29690915 -0.29656655 -0.19619060 0.01990112 0.15353869 0.26443881 -0.05749345 0.10236566 0.15762129 -0.10335701 -0.18969308 0.44785175 -0.21840674 0.07461205 -0.14184374 -0.01305497 0.20526744 0.35465881 -0.21753198 -0.29312533 -0.01736980 -0.22342375 -0.25036493 0.13669306 0.06996804 -0.03534315 0.24877475 -0.14266057 -0.01678877 -0.31998512 -0.24524999 0.16238697 0.31300724 -0.01765803 -0.12298514 -0.15858184 -0.10413812 0.02033594 -0.11133973 0.02862464 -0.07307778 0.14555226 -0.14497085 -0.26176831 0.08729700 -0.16280533 0.00402394 -0.13860524 0.10918817 -0.14216340 -0.16382350 -0.00686025 -0.12940060 -0.09382263 0.15590574
0.18422197 0.02606037 0.18780228 -0.03082304 0.19752695 0.20600212 0.13775428 -0.15143706 -0.08115725 0.18940638 0.15176025 -0.01769822 0.07597233 -0.23102488 0.24683821 0.29799002 -0.07583023 0.18200466 0.01352568 -0.07409556 -0.12229700 0.15617464 0.23901722 0.24616271 0.02580567 -0.08714617 0.04318163 0.10296839 -0.04800555 0.27335274 -0.00089455 0.47252458 -0.11922735 -0.23730958 -0.30610996 -0.11274990 -0.12905885 0.24835214 -0.01239393 -0.43209764 0.00955837 0.25582877 -0.07936598 -0.39425185 -0.11084095 -0.07771710 0.01919611 0.19263987 -0.07619141 0.27831700 0.21539654 0.15055464 0.05211856 -0.23082313 0.33452314 -0.12030648 0.10596120 -0.15565567 0.21261531 0.02698866 -0.13534781 0.07209180 -0.35236883 -0.26486805
0.00553182 -0.33275035 0.06489442 0.11715871 -0.08575158 -0.23852950 0.17111158 0.28275338 0.00669752 0.33463570 0.00543081 0.31543839 -0.02834585 -0.35819191 -0.08530908 0.02035996 -0.10369803 -0.29572329 0.24641448 0.24871615 -0.02145961 0.10802391 0.07514889 0.49854013 0.12040771 -0.26290894 0.00032229 0.10480305 -0.34837994 -0.02351681 -0.21918762 0.02685358 -0.03487880 0.03538414 -0.09851369 0.21571840 0.30171874 -0.16805066 0.37947097 -0.55652511 0.13487016 0.08620934 -0.21765992 0.13458501 0.05567092 -0.20774075 0.08975992 -0.36705461 0.12181846 0.49946809 -0.00692333 0.19010657 0.14072098 -0.23859030 -0.04494688 0.05895757 0.27222961 -0.10900807 -0.00952345 0.01095000 -0.04161579 0.13902752 0.09502327 0.08463666
0.14817311 0.42137825 0.06154703 0.25822416 0.08258080 -0.40510952 -0.10155797 0.01530312 0.01087323 -0.18529275 -0.10663487 -0.18934016 0.17773563 -0.09253435 -0.07733509 0.29910803 -0.02687954 -0.03264415 0.00056814 0.22822955 0.33132678 0.06033767 -0.10838845 -0.05242026 -0.12088630 -0.19286099 0.23906310 0.11913264 -0.16600412 -0.13355570 -0.13132030 -0.17040108 0.12527636 0.44776759 0.03153302 0.04276408 0.04640279 -0.03020295 0.05513082 0.20456925 0.28343663 -0.24719414 0.22524717 0.02879120 0.20016496 -0.12040328 0.14477159 -0.31306294 -0.18814805 -0.16333304 0.10230163 0.16944140 -0.11072777 0.10840070 0.05983942 0.17866781 0.10152228 -0.03269036 -0.14076264 -0.05059423 0.16025877 0.27064133 -0.02822620 -0.02970298
0.01184470 -0.04803628 -0.00775040 -0.03555141 0.03606328 -0.04846566 -0.08641112 -0.15199465 0.03174287 -0.03695434 0.08964159 0.18372734 0.01041725 -0.15050840 -0.06167424 -0.02882096 -0.01871592 -0.09023994 -0.08502464 -0.03202505 0.06969814 0.03766618 -0.02833367 0.09437299 -0.05075044 0.02740768 0.15568022 0.11698277 -0.05236518 -0.05260811 -0.02103100 -0.06759703 0.09166066 -0.08186055 -0.07009390 -0.18072015 0.17028229 0.11390952 0.11638680 0.00062316 0.14872216 -0.10977205 0.05433550 -0.06281606 0.03444880 0.09980543 -0.04095121 -0.18155065 -0.09384648 -0.00361786 0.15053238 -0.06823985 0.07930557 -0.08716321 -0.01567629 -0.01913249 -0.05871962 0.13957736 0.07974992 0.05861856 -0.01570760 -0.00794543 -0.25090176 0.15128098
0.12251215 -0.26769349 -0.03881820 0.23384605 -0.13067138 -0.24043468 0.21701154 0.05920951 -0.17526816 -0.16585335 0.34925929 0.19627246 0.18330994 0.32742235 0.02266838 0.10824018 0.38166112 0.12391546 -0.22021228 0.08234142 -0.07776649 0.27796730 -0.34184614 -0.04051423 0.15748267 0.07182696 -0.05153325 -0.32180154 0.11718282 -0.43138266 -0.03995737 -0.14474054 0.35623938 -0.40693471 -0.12779410 0.04428489 0.12873740 -0.23456256 0.22897702 0.63787031 -0.18027526 -0.04461838 0.05594788 -0.02267395 0.07077833 -0.10520525 0.16806832 0.17480247 -0.25079539 0.13471748 0.30520976 0.09977593 -0.12550670 -0.08464161 0.00759757 0.34266737 -0.50157189 0.40833923 -0.03531928 0.06773856 0.08820643 0.04769573 -0.34723744 0.03760397
-0.21301942 -0.41449785 -0.39487112 0.11030397 0.13715175 0.40400344 0.41279930 -0.12514019 0.29919037 0.09753060 0.21011266 -0.30437174 -0.35001278 -0.49856317 0.06368511 -0.38992471 0.10221596 -0.06136154 -0.31652620 -0.32014999 0.29266807 -0.50196838 0.03175434 0.05959114 0.37444520 0.51814479 -0.23472470 -0.12451213 0.14424241 -0.10195554 0.21679321 0.09164382 0.24382450 -0.05683573 0.80241805 0.15239853 0.42638341 0.24554889 -0.17514104 0.06608911 -0.12977621 0.42164883 0.36167455 0.25800559 0.10869642 0.08636376 -0.42663839 0.25935033 0.25713250 0.20733646 0.05727187 -0.42945713 0.53844899 0.49344218 -0.19642739 -0.38538051 0.45594198 -0.07328266 0.05784696 0.44844157 -0.31527597 0.70755541 -0.18973811 -0.52009338
-0.38855806 0.04329102 -0.02899335 0.14466894 -0.50777239 -0.03800486 -0.12542844 -0.39904496 0.27676168 -0.38850349 0.03523811 0.35969961 0.26798815 0.09729783 0.06250931 0.11602669 0.13027452 -0.41923991 -0.35292348 -0.00532593 -0.04390840 -0.08000352 0.00033728 -0.14402583 -0.02997754 0.25683749 0.02777736 -0.08039837 0.11733741 -0.05287732 0.13234177 -0.46596569 -0.20414324 0.41127953 0.08880773 -0.21272179 0.31800562 0.19357018 -0.04899965 0.00881711 0.14262742 -0.67574030 -0.05365514 0.13806506 0.32333866 0.19649452 -0.08268638 -0.30501601 0.19838454 -0.02192827 -0.05681278 -0.08038487 -0.08336949 0.05127270 0.14756575 0.11486489 -0.14009534 0.07985453 0.13507456 -0.15278046 -0.12678471 -0.13686320 0.00744795 -0.35877872
0.22746989 -0.34315106 -0.28763494 0.32992995 0.37622735 -0.10569423 0.10141493 0.10702335 -0.31794688 0.33233130 -0.02428613 0.36674112 0.06890418 0.18073690 0.07240129 0.00523708 0.06910894 -0.03921308 0.20451267 -0.03501981 -0.19549508 0.26544675 0.23766518 0.15322760 -0.50853598 -0.02143058 0.56990063 -0.03841734 -0.05434361 -0.14540292 -0.31860355 0.14101674 -0.00572161 -0.14149223 -0.31921849 -0.08472311 -0.53767014 -0.36106905 0.19476222 0.05058543 0.34396371 -0.12925805 -0.44107780 0.16527160 0.06487173 0.07391292 0.03425654 0.19369484 0.04672171 0.25838938 -0.20333320 0.46200958 -0.48885334 0.25669420 -0.13675863 -0.00856205 -0.41583329 -0.18980551 -0.08593827 -0.19326667 0.35399953 -0.31462562 0.19266446 0.18163371
-0.32257786 0.32690617 0.42263550 -0.20015469 -0.23974003 0.01595957 -0.29301038 -0.20521557 -0.26481500 0.27552131 -0.13539255 0.14684996 0.10244826 -0.20828344 -0.06791752 -0.01266877 -0.09178894 0.04731321 -0.12799518 0.39556560 0.09468262 0.15397716 -0.09011570 -0.10637230 -0.03498353 -0.21012132 0.08739202 -0.11739299 -0.02039366 0.12045006 -0.07961769 -0.24142256 -0.09889251 0.17709105 -0.20306650 -0.07891969 -0.25159666 0.09849519 -0.25645289 -0.14961278 0.21468033 -0.15695013 -0.21372108 -0.11679614 0.20616354 0.08708914 0.00598378 0.24511898 -0.00682010 0.27699938 0.05190205 -0.00043088 -0.11183943 -0.38046294 0.25469011 -0.03105372 0.18438822 -0.05205198 0.01333990 0.17902014 -0.17656071 -0.10955841 -0.01900607 -0.00001541
0.18557741 0.22344615 0.23717539 0.14283456 -0.05874837 0.08494046 0.47450516 -0.29623708 -0.17936909 -0.08311021 -0.14585461 0.18602286 0.47292411 0.29656348 -0.16007021 0.09458504 -0.14607151 -0.27229106 0.10900725 0.19531171 0.12101384 -0.04391557 -0.22001471 0.06188237 -0.00884415 -0.02043969 -0.26151949 0.09752015 -0.02561084 0.02567399 -0.20591100 0.05281933 -0.00027040 0.16974661 -0.18462363 -0.15292078 0.00739177 -0.11155213 0.16079599 -0.16504870 0.17259617 0.38077682 -0.13632642 -0.22483745 -0.02752992 -0.20140512 -0.31150365 0.20589904 -0.22668156 -0.24527100 0.22248194 -0.09023729 -0.09074862 0.25102699 0.27113399 0.12422462 0.05435124 -0.01717316 0.09502583 0.11478680 0.13813277 -0.34456268 0.14503837 -0.15303580
0.28167489 -0.03536139 0.33390459 0.12835981 0.13691358 -0.68157119 -0.18687472 -0.31981340 -0.25130108 0.59841400 -0.60741109 -0.04189019 -0.28601086 0.21670584 -0.11065774 -0.32645336 0.33077654 -0.20794916 0.61354530 0.04636696 0.30394340 0.24875990 0.36686030 0.25806299 -0.41603482 -0.34173113 0.51405853 0.37677747 0.14499697 0.25855401 -0.04597590 -0.06625065 -0.53409117 -0.65742356 -0.07300480 -0.84897906 -0.52286726 0.05728913 0.34313202 0.50163668 -0.27034152 -0.28859094 0.10660354 0.04329630 -0.08450516 0.09874865 0.39149454 0.22654210 0.20589894 -0.57726097 0.00629954 0.34188795 -0.28341427 0.06317464 0.40681538 0.64490724 -0.27496484 0.08289176 -0.43450567 -0.15430562 0.64194399 -0.16356619 0.02788532 0.07714714
0.00316743 0.14133357 0.16223562 0.00308384 0.10305604 0.11502211 0.00974903 0.07702624 -0.02094418 0.10711306 0.29639325 0.01819193 0.03055524 0.00802617 -0.31828409 0.17413950 0.12723266 0.25662789 -0.02328217 -0.02255316 -0.08790898 -0.04836839 -0.04702104 0.19816138 -0.05180072 0.24500874 -0.21570054 0.23017268 -0.01615179 0.18240012 0.05531127 -0.18289807 0.29493463 0.31682557 0.02220210 0.19549637 0.01698532 0.31767169 0.05700903 -0.07520623 -0.23713262 -0.15124363 -0.11078299 -0.04179096 0.00889118 0.08579370 -0.34371164 0.27239612 0.06211515 0.25192907 -0.00592054 -0.13890950 0.23453568 0.03552028 -0.09074482 -0.03505059 -0.27019420 -0.29002699 0.13090166 -0.21695852 -0.00941962 -0.08067462 0.25122133 -0.05171718
0.19516733 -0.01955434 -0.16888689 -0.05195207 0.36358652 0.00350334 -0.18343644 0.01934994 0.35428128 -0.10130767 -0.32373384 -0.22029936 -0.07166718 -0.18550833 -0.32610291 -0.13219178 -0.24833947 -0.14850056 0.04046757 -0.13339949 0.11169887 -0.45632571 -0.39421722 -0.03138381 0.26704541 -0.07054592 -0.20080210 -0.20789902 0.15821899 0.13244678 0.38256690 0.00523842 0.12820715 0.14363194 -0.13097624 0.47855935 -0.17724504 -0.15551721 0.13913485 -0.49673927 0.14193262 0.30719033 0.26350477 0.23644273 0.14438026 0.04408087 -0.25494248 0.09165594 0.08955587 0.35323340 0.01649877 -0.19399783 0.09422969 -0.04798987 0.09034745 0.04089288 0.22660162 -0.14285511 0.24195622 -0.31998995 -0.29936630 -0.09911428 -0.08741172 -0.38801658
-0.12632838 0.01371397 0.29214984 0.17928012 -0.15081275 0.30690271 -0.33748746 0.18911016 -0.08679704 -0.08558536 0.03166874 -0.28710970 0.14085554 0.38131028 0.03052594 0.24129103 -0.05685984 0.14066714 0.32848230 0.17878938 -0.20416266 0.10568947 0.34559339 0.13721058 0.07302651 0.12098107 0.05759820 0.03790010 0.00078048 0.17133935 -0.22114524 0.17734656 -0.17444459 0.04171680 0.25958383 -0.05067991 0.02247273 0.11006226 -0.21210407 -0.59565800 -0.18389755 -0.08281247 -0.17955063 -0.15187337 0.02630374 -0.18970674 0.07540816 -0.15374832 0.05517308 0.16475880 0.05153247 -0.08411255 -0.12123888 -0.20782335 -0.17996629 -0.08025723 0.28455460 0.12960315 -0.24713144 -0.10176939 0.10363465 -0.18712111 -0.18129848 0.04335397
0.04598581 -0.07871541 0.03888455 -0.14915694 -0.28172380 0.16821593 -0.32634124 0.08312340 -0.00223855 -0.16298157 0.09098217 -0.10224868 -0.04594266 -0.00866127 0.08447096 -0.31460550 -0.27495819 0.01471296 -0.01857918 0.31856850 0.00459707 -0.04467605 -0.02732052 0.45925552 0.12478176 0.03124481 0.01448957 -0.18359175 -0.00692799 -0.07876806 0.06402358 -0.13733938 0.18899335 0.00792982 0.39569402 -0.05329959 0.27592799 0.00330584 -0.18433827 0.26663283 -0.23795648 -0.00317623 -0.02905375 -0.01445156 -0.31385928 -0.27247399 0.17177007 -0.07970169 -0.18983273 0.30511171 -0.01218405 0.26763842 0.14878932 -0.19934627 -0.34374002 -0.24946059 -0.09442960 0.33982986 -0.03436135 -0.24500161 0.19539258 -0.17203201 -0.00098055 0.24049515
0.01902132 -0.57722616 -0.75067616 -0.08394740 -0.12364134 0.10464018 0.30668458 0.31342581 0.43866259 -0.46441171 0.77213663 -0.24011399 -0.28006998 -0.38865927 0.18297559 -0.10285836 0.15252276 0.04771644 -0.36439365 -0.01761665 -0.05036014 -0.27572474 -0.36430007 -0.27266794 0.06174418 0.59630877 -0.77748948 0.01334437 -0.55151212 0.13529734 0.52469552 0.40904021 0.34317347 -0.20864053 0.30089295 0.51820940 0.23355642 0.28798622 -0.15744875 0.14506833 0.23882824 0.37207991 0.55913687 0.01146210 0.49657390 -0.60434115 0.03905135 0.17303300 0.07545806 0.21190290 0.15000215 -0.53100252 0.48300546 0.38558069 -0.23018272 -0.32143375 0.82312495 0.36858678 0.33734596 0.33337855 -0.28609344 0.78635937 -0.10742144 -0.35160908
0.07694213 0.25401932 0.13235921 -0.34136781 -0.13501205 -0.02100535 -0.34357241 -0.29704088 0.25236809 0.02717825 0.08055082 0.43850797 0.35291883 0.27975950 0.04324084 0.03544096 -0.44334823 0.26588839 -0.15846096 0.35425031 -0.08406129 0.40487197 -0.09976466 0.58653408 -0.34394935 0.03633691 0.30182609 0.11154277 0.25347927 0.19139007 -0.02286004 -0.25399801 -0.34115630 0.07992262 0.32215175 -0.36151358 -0.25174281 -0.17143652 -0.10556447 -0.08866200 -0.24216537 0.09364800 0.19918083 0.16427581 0.00155196 -0.07193349 -0.10597201 -0.30850986 0.03264039 0.29602256 -0.24405867 0.07005393 0.24561499 0.19043423 0.23858011 0.28993058 0.15999463 -0.17295213 -0.25735843 -0.28450865 -0.04511150 0.03823140 -0.15140392 0.09759146
-0.03501813 0.05526638 0.10687017 -0.21947701 0.06017247 -0.35226366 0.07818925 -0.06006182 -0.08256136 -0.27440441 0.08355498 -0.06205154 0.03845148 -0.03639029 0.04708304 0.11216728 -0.31407091 -0.08871119 0.13237643 -0.04966592 -0.04718431 0.02021117 -0.24792345 0.00449366 0.35174191 -0.19788319 -0.07657425 -0.00311614 -0.15815999 0.46520534 -0.20840271 0.10904587 -0.22322032 0.12963304 0.18097769 -0.19825584 -0.02842939 -0.15123552 -0.11167772 0.09879086 0.09508199 -0.01914971 -0.13832599 -0.05098346 -0.48630747 0.03573363 0.41552144 -0.08616724 0.10516188 -0.03657472 -0.25779119 0.08959018 0.03119902 -0.45362923 -0.04348683 0.18417189 0.05552723 0.00427510 -0.20430757 0.14778672 0.05753519 0.30406973 -0.06945407 0.34161785
0.31873327 0.05654658 -0.11391443 -0.17623872 -0.08968168 0.26109114 0.21746226 0.06166186 -0.13130896 0.25770113 -0.18244594 -0.17218579 0.05122402 -0.11698586 0.28072238 0.10598648 -0.34999543 -0.22401495 0.07489340 -0.02678687 0.46032032 -0.46732712 0.07160100 -0.15258315 -0.06238260 -0.32956463 0.16208346 -0.26434305 0.00464164 -0.06889697 0.08481481 -0.03411255 -0.13588659 -0.15862261 0.07133636 -0.04390123 0.13762635 -0.22530250 -0.31007838 -0.19803245 -0.29909635 0.35546511 0.08560058 0.11061396 -0.15270703 0.16017979 -0.02986749 0.12996846 0.01233662 -0.44597837 -0.08737244 0.07997420 -0.06550899 -0.37074980 0.19289914 -0.04866166 -0.02230690 0.05737248 0.45051461 -0.08301755 -0.02506617 -0.15912127 0.11761628 0.38173401
-0.37724927 0.17832711 0.44563171 -0.20561905 -0.20329934 0.12080145 0.22037378 -0.00242841 0.22337641 0.00405827 -0.04158532 0.04415249 -0.02749199 -0.03395748 0.00407936 -0.24216653 0.41477546 0.24636295 -0.35621285 0.14079201 -0.10688969 0.44615936 -0.05898649 -0.30245367 0.14539684 -0.17091626 -0.11017388 -0.08115093 0.15696429 0.13366514 0.18751051 -0.11938138 -0.18210442 0.27125624 -0.31584069 -0.20183867 0.26547536 -0.01683532 -0.26025730 0.08180160 0.18451196 -0.33907014 -0.04714576 -0.02996295 0.11156127 -0.02744016 -0.17595717 -0.23016372 -0.15893604 -0.21515356 0.29104537 -0.01847821 0.24591112 0.22022964 -0.10092073 0.18378983 0.03197510 -0.24789877 -0.19501767 0.30459529 -0.26895815 0.46943846 0.06021430 0.06826415
-0.34327111 -0.08679754 0.32015252 0.14479274 -0.39432815 0.31495151 0.11909694 0.11371238 -0.12321968 0.06291780 0.07869333 0.19216447 -0.41871998 -0.19870128 0.19622263 0.14442338 0.19976534 0.10829105 -0.18491723 -0.17785570 0.14604723 -0.26556811 -0.16175266 -0.48176065 0.35790631 -0.25881696 -0.07853098 -0.07778124 0.15979484 -0.07434566 -0.10097501 -0.08915095 -0.23936665 0.27354988 -0.10373631 0.44067964 -0.17542160 0.26948071 0.03374116 -0.61601371 -0.21121740 -0.01633944 -0.31345421 -0.13734585 0.20619488 -0.10641139 -0.32253399 -0.52172983 0.14791407 -0.18328536 -0.05981548 0.40347055 0.19154008 -0.22363222 -0.07181023 -0.13523495 0.05283141 -0.13678949 0.08299305 0.14017637 -0.24683951 -0.30418304 0.20324670 0.19832057
0.41364047 0.19509681 0.04843470 -0.05644361 0.23259409 -0.08680966 -0.09751114 -0.43335333 0.00054437 -0.03740691 -0.47752646 -0.18913542 0.13959834 -0.44586167 0.15788203 0.18904570 0.00561942 0.09117287 0.06525214 0.09629663 0.21524954 0.22284038 0.26640055 0.04698747 -0.16516547 -0.42619616 -0.01371240 0.07006083 0.12965494 0.23356350 0.14368765 -0.17145690 0.13539717 0.02440146 -0.18120766 0.12231222 -0.13237539 -0.16799764 -0.26421937 0.23484139 0.14737381 0.18875115 0.21762286 0.07017010 -0.22755539 0.34576187 0.12440206 0.13569625 0.07433530 -0.13691849 -0.21432754 -0.01451023 -0.02031786 0.08438227 -0.20707035 -0.05043852 0.19644614 0.42265430 -0.18688473 0.02971429 0.20770906 0.16727506 0.12164009 0.25752619
0.24735494 0.33932933 -0.04815959 0.04658912 0.11882942 0.17369366 -0.49155357 -0.36052448 0.22232054 -0.20868367 -0.30284265 -0.30026683 0.11733670 -0.05112002 0.40817231 0.44819680 0.10909539 -0.28207242 -0.13949640 -0.32355118 -0.01107001 -0.14965498 0.12653498 0.25219390 0.27797940 -0.05917741 -0.00634514 -0.01606353 -0.00082765 0.08518741 0.04640719 -0.33946687 0.06369219 0.13940357 -0.03429770 0.17293569 0.03245490 -0.27620855 -0.18573837 0.12306529 0.25211030 0.05894884 -0.03194715 -0.06309894 -0.33239907 0.10261825 0.12653539 0.04563984 -0.19601995 -0.13997152 -0.24399319 0.19015495 -0.10352682 -0.13348946 -0.32257530 0.02599391 -0.13727833 0.30824763 -0.22526929 -0.05326093 -0.27085948 0.17872480 -0.13734570 0.23039946
0.06868516 0.10942883 0.24977145 0.00887362 0.30396372 -0.28698146 -0.20677926 0.06094809 -0.23263352 0.18294135 -0.16544923 -0.33053225 0.16544431 0.09260456 -0.35895377 0.16502964 -0.10507724 0.30400270 0.38318688 -0.14945467 -0.00513335 0.05015009 0.23528203 -0.42451385 0.05844098 -0.38959390 -0.00155292 0.02876329 -0.41385803 -0.18913047 -0.33849731 0.24039853 -0.14446948 -0.02663880 0.04932550 -0.01167584 0.11981974 -0.12340384 0.07147447 -0.11720154 0.18364017 0.19646364 -0.09346826 0.30836156 -0.19335143 -0.07523247 0.30205584 -0.12396018 -0.23310818 -0.26265845 0.36710155 -0.18691407 -0.27295676 -0.08724700 0.21863715 0.06381815 -0.00901616 -0.05014028 0.14435267 0.08271292 -0.08359872 -0.21831490 0.14606194 0.04896809
0.07303007 0.16937223 -0.10337155 0.04854248 0.03914288 -0.06361482 0.08975941 0.13310266 0.00844006 -0.03548010 -0.11978963 0.03839793 0.09437300 0.01599253 -0.03072287 -0.05868356 -0.19541360 -0.00737174 0.11512425 -0.01239444 0.09060613 -0.07122335 0.11799050 -0.17063402 0.08443878 0.06456669 0.05389352 -0.03952929 -0.01766262 -0.04817378 0.11947594 -0.06304504 0.03019264 -0.00349823 -0.08101261 0.00053023 0.22641699 0.02591687 -0.03333651 0.03727561 -0.08971141 -0.18669111 0.10510447 -0.07788010 0.03611414 -0.00943386 -0.05207414 -0.17274518 -0.15996210 -0.00044361 0.02613587 -0.14854276 0.04767657 -0.03053067 0.10283447 -0.08301411 0.08606981 0.11273650 -0.03520950 -0.10008600 -0.02089770 0.04598366 -0.03739974 0.04714222
-0.36805791 0.04596576 -0.06249564 0.27897087 -0.04597486 -0.07790936 0.31676701 0.00027905 0.15517338 -0.07912587 0.05482982 -0.10206670 0.01624271 -0.06219778 -0.07553571 0.28663459 -0.01639822 -0.22082238 0.12293694 0.26899004 0.11821654 0.34673363 0.49131030 0.10199238 0.17869146 0.13653712 0.21133980 0.01916257 0.08627813 0.01564988 -0.13883464 -0.00359597 0.11311270 0.34325892 0.08076286 -0.07872943 0.08612276 -0.15413024 -0.26451311 -0.15177879 -0.04212740 -0.03934882 -0.18531542 0.05066191 -0.05690448 -0.15929113 0.22313350 0.07201324 0.03062754 -0.04565153 0.05735919 0.12230535 -0.01056017 0.36753464 -0.10840333 -0.01643850 0.22598320 -0.08826103 0.08958292 -0.18405740 -0.07853667 0.41257769 -0.25414777 0.21976528
0.09086539 -0.24079028 0.06357406 -0.09236908 -0.07584677 -0.04595608 0.09069311 0.02236047 -0.19246081 0.03797451 -0.00396724 0.05868139 0.06534422 0.06887825 0.11282804 -0.01834447 0.39314088 0.29025108 -0.27357283 -0.13705882 -0.27511513 -0.21237922 -0.09101666 0.04962493 -0.13193972 -0.00883142 -0.00385657 -0.04827031 -0.06710782 -0.13292269 0.38432720 0.09333688 0.04770717 0.09013723 -0.21831383 0.34893209 0.00858546 0.00235787 0.02907877 0.36286521 0.20791298 0.02482546 0.16045651 0.11799853 0.08597131 -0.18868957 -0.00492775 -0.22606723 -0.00619044 0.14981093 -0.02393108 -0.11554968 0.08797351 -0.04585075 -0.22914770 -0.05873302 0.12159541 -0.27830070 0.20306574 0.00851191 -0.08309608 -0.18090095 0.02842209 -0.22750989
0.05636419 0.05004060 0.27509832 -0.11949511 -0.00323700 -0.09292689 0.09235948 0.13507830 -0.10988934 -0.04666283 0.03181725 -0.25317204 0.14218110 0.24058910 -0.26384932 0.03097094 0.08783662 0.05792473 -0.22297780 0.07198768 0.14832114 -0.10522247 0.08285451 -0.04592443 0.17640804 0.08752839 -0.38613656 -0.11584168 0.15133576 0.12996458 -0.12946139 0.18339470 0.03444364 0.45638171 0.01256732 -0.02922752 -0.02570260 0.19533660 0.06077861 -0.31843555 0.23337640 -0.07672583 0.19963990 -0.19873437 0.09767291 -0.29108644 0.09167852 -0.25533161 0.08403262 0.07825015 0.16436642 0.20607285 -0.17971049 -0.05363327 -0.33043361 -0.11956717 -0.21438968 -0.07545929 -0.33161333 0.25313061 0.00868129 0.26026931 0.05068580 0.31141660
-0.18844149 0.26000157 0.15731888 -0.26892132 -0.11268312 -0.10778694 0.06052224 -0.14014769 -0.29878137 0.27092442 -0.01467356 -0.21177889 0.03675541 -0.31073907 -0.09016906 -0.11786684 -0.41125533 -0.05550058 -0.07184380 0.26853594 -0.01258276 0.06751794 0.19735181 0.07426326 0.39344957 -0.10987680 0.24085364 0.18604632 -0.08736286 0.12005192 0.12811424 0.05796225 -0.04258161 0.17143205 0.12883772 -0.02521126 -0.00894806 0.11302979 -0.13627858 -0.25116250 -0.02831404 0.11457985 0.04343082 -0.13676429 0.04274570 0.01711906 0.07784960 -0.34729531 0.15887755 -0.26109448 -0.20458746 0.03675223 -0.07893538 -0.28631493 0.04033590 -0.02681767 0.28037864 -0.03900433 -0.00038511 0.00598070 -0.05209731 -0.13359036 0.10017692 0.08174907
0.08942454 0.23814593 -0.09159133 0.26676160 0.42205641 0.17925526 0.08891775 0.31170452 0.27829671 -0.15262377 0.03161981 -0.20870787 0.09705428 -0.06723288 0.08970904 -0.23178615 -0.08290911 -0.31474248 -0.10950768 -0.21975213 -0.13000225 -0.07506638 -0.12174994 -0.03670044 -0.31488562 0.31106427 -0.08932361 -0.19687767 0.04378599 -0.10387301 0.01245456 -0.29053089 0.36491355 -0.01563153 0.03360791 0.20356329 -0.34851241 -0.22141023 -0.17030452 -0.17218919 -0.15587692 0.38334921 0.10027552 -0.07415556 0.47177011 -0.21525246 0.18585150 0.07776228 -0.03771789 -0.15597467 0.29685444 -0.12921305 0.35173357 0.26528102 -0.04032911 0.00062192 0.28774789 -0.07852008 0.14926943 -0.10971915 -0.23202091 -0.18759318 0.32950330 -0.13458568
-0.13361618 -0.01293631 0.05848726 -0.12614445 -0.06670219 0.07378310 0.15339944 -0.11210403 -0.16325434 -0.02198854 -0.14611441 0.17464843 -0.11193080 -0.08067913 -0.43130139 0.08905537 0.08842345 0.02964322 -0.07640345 0.06386381 -0.17153615 0.22536691 -0.03666557 0.00065802 -0.31308064 0.48049170 0.22110003 -0.11926990 -0.10589144 -0.27458015 -0.05159990 0.12610641 0.00987940 -0.05702743 0.12250701 0.13789919 -0.07422107 0.48716024 -0.04463978 -0.13241978 0.25263870 0.12591611 0.11615813 -0.02221186 -0.16006339 0.07352281 -0.07153658 0.14008263 0.06846834 0.08297524 -0.00598847 0.25356832 -0.22719669 -0.07227098 0.12147520 -0.08772706 0.32459068 0.19045335 0.11165102 -0.05578434 -0.14242172 0.15200721 -0.10893185 0.01138133
-0.29894534 0.22086132 -0.00511955 -0.13141625 0.05728582 0.21437451 0.27106574 -0.04848827 -0.04404974 -0.07073267 -0.04036861 -0.18849355 0.05379533 -0.18474834 0.04604028 0.16903758 -0.08602644 -0.09965034 0.02599051 -0.13439341 -0.06900242 -0.23104265 -0.17992853 0.02177303 -0.10732688 -0.13728844 -0.00185753 -0.06780411 0.04835238 0.19743493 0.13665569 -0.10184195 -0.20286885 -0.00171610 0.20818099 0.24756181 0.04396701 0.18284336 0.04619861 -0.19251776 0.04504645 -0.02074249 -0.07250427 0.18780828 -0.16821226 0.19301561 -0.23490635 -0.01797418 0.13458459 -0.46401232 -0.22225799 0.15948708 0.00122576 -0.01140749 0.18438636 -0.16288345 0.21702273 0.07639985 0.10158387 -0.07926918 0.12249229 0.16668786 0.11192923 0.27123743
0.20917480 -0.25934944 0.14022210 -0.20616084 -0.08798774 0.05369069 -0.13853906 -0.05172193 0.16868441 0.23508908 0.23693088 -0.09878259 0.17311919 0.08271363 -0.39153212 -0.02037339 0.05726999 0.21468610 -0.05917181 0.13582562 0.19563273 0.31136522 -0.09363288 -0.13998820 0.00944088 -0.13204405 0.26850528 0.18535708 0.15064687 0.02559042 -0.01978778 0.33408365 0.10581876 -0.11527610 -0.19794075 -0.21726559 0.21296190 -0.20499432 -0.07609288 -0.06958368 -0.26681483 -0.29610354 -0.15651682 0.19165494 -0.24153155 -0.03561780 0.24401402 -0.08033291 -0.33339068 0.02554229 -0.20967093 -0.02768104 -0.08635722 -0.16374056 0.07243963 0.07041313 0.13959396 0.08134826 0.00480708 0.03852272 0.14798470 0.00593608 -0.05069134 -0.24902150
-0.24702656 -0.07469736 -0.05380990 0.09663441 0.05421531 -0.02379545 -0.14380419 0.23478796 -0.04376135 0.12576504 -0.22329096 -0.34413233 -0.08611919 0.25580031 0.23611006 0.04332709 0.10858607 0.32739007 0.01245696 0.20638980 -0.10353658 -0.12641600 -0.30923408 -0.01686711 -0.24437845 -0.53648192 -0.10504788 0.29171422 -0.03008398 0.08031952 -0.10807701 0.26893905 -0.13518696 0.21088015 0.47592893 -0.28956452 -0.04135264 -0.18599448 0.36494300 0.23911777 -0.06865883 0.06273532 0.21135814 0.07783693 -0.07756463 0.20608605 -0.01202788 -0.01795869 -0.02935096 -0.34252536 -0.03436112 -0.05146350 0.01439797 -0.13275589 0.07156308 -0.07314050 -0.32331520 0.42167276 -0.04690421 0.25614199 0.05775707 0.09149492 -0.23628414 0.36341149
0.18727089 0.22885798 -0.44241992 -0.07609878 0.15169401 -0.37095243 0.06806416 -0.06208817 -0.18690830 0.18844581 -0.14019611 -0.27348989 -0.18738568 0.08940791 0.20162646 -0.17701457 0.05058943 0.07787552 0.26257563 0.17611648 -0.26992801 -0.19143918 -0.00899160 0.09320526 0.04383675 -0.21260118 0.05174840 0.07479204 0.01932793 0.30448762 0.05518452 0.24899134 -0.37363896 0.15259460 0.20086268 -0.53213257 0.14290844 -0.13259761 -0.26647595 0.18905509 0.13482176 0.36184454 -0.05289954 0.05807718 -0.26711628 0.15088500 0.17122714 0.08567191 -0.19434707 -0.36169252 -0.25870651 0.12505734 -0.10063882 0.21245745 -0.29273126 -0.10317368 -0.15749820 0.00661154 -0.14032617 0.09614961 -0.15005459 -0.22504233 0.10289044 0.04596139
0.01840573 0.18547526 -0.02332343 -0.24409224 0.12641060 0.11954999 0.19713368 -0.16001530 -0.04991840 0.05976842 0.02581770 0.06503524 0.01297581 0.13807407 -0.13869047 0.20159115 -0.02537161 0.35452005 0.17710438 0.05726277 -0.06450611 0.13012390 0.06936763 0.26122418 0.24996035 -0.05264996 -0.16745013 0.14067915 0.13112827 -0.14584206 -0.32367256 -0.26043755 0.04232930 -0.27943727 0.16524319 -0.26819557 -0.28498042 0.12166924 -0.15456253 0.34748492 0.05500571 0.15237725 -0.05154549 -0.20533395 -0.13002203 -0.00532960 -0.11465613 -0.19112018 -0.04652710 0.18558630 -0.02936511 0.03434705 -0.00588819 0.06777830 -0.07033201 0.13390866 -0.18541473 -0.03863746 -0.04713948 0.02063610 0.38151321 -0.02390211 -0.19235153 -0.20563902
0.17808272 0.04522149 0.08111781 0.06758582 -0.19249311 -0.13615924 -0.08792609 0.05824030 -0.00658215 0.19215436 -0.00792471 -0.12644328 -0.08006319 -0.07137173 -0.15615588 -0.10445289 0.07388081 0.37119666 -0.10413098 -0.12166703 -0.13272721 -0.04478548 -0.12124832 -0.13063124 -0.08629471 -0.11217916 -0.19344530 0.35191691 -0.05603883 0.12844348 0.12097532 -0.02927139 -0.14204493 0.01324466 -0.06604665 0.22986732 -0.02692852 0.10761763 0.23784694 0.17889780 0.25454989 0.11938993 -0.21545590 0.27459624 -0.33256391 -0.23399946 -0.00787357 0.05207997 -0.07000273 -0.22589462 -0.36101830 -0.09052312 -0.15653308 -0.31719461 0.35898915 -0.00390843 -0.17887118 0.10783166 0.06596028 0.11585201 -0.09235273 -0.09433807 -0.06271179 -0.13203762
0.10424013 0.14258382 0.02658452 -0.39583015 -0.11800415 -0.35012415 -0.08985132 -0.03952510 0.08325897 0.34750959 0.09928518 -0.06747528 -0.33879080 0.02184977 -0.17166789 0.13324471 0.15513863 -0.13506950 -0.29340112 -0.13445555 -0.18590741 -0.42781514 -0.13806537 -0.34167737 0.25906530 0.35740319 -0.26591632 -0.26626804 -0.21848270 -0.12685831 0.00507541 -0.10118922 0.01169870 -0.29433015 -0.21146494 -0.13514979 0.13605708 0.16533031 0.06097995 0.50379372 0.01532545 -0.16358635 -0.20720549 -0.15716776 0.00071853 -0.18018010 -0.12887947 0.27069458 0.30815670 -0.02860245 0.17513767 -0.05730923 0.09642799 0.07447180 -0.37889493 -0.15394671 -0.21609393 0.24570738 0.07757106 0.22210954 -0.11070697 -0.05724382 0.46728951 -0.09019040
0.18575208 -0.22869067 -0.07914704 0.02219935 -0.17151360 0.01773423 0.00986015 -0.01565752 0.22176841 -0.10271585 -0.27550244 0.30928940 -0.36523926 0.04830034 0.31279728 -0.06979196 0.02577860 -0.05185141 -0.08247939 -0.21245340 -0.18208382 -0.19942026 -0.24177164 -0.05594831 0.01378949 -0.05197341 0.01523404 -0.10429087 -0.01443219 -0.03553381 -0.44771665 0.09488411 -0.16038617 -0.09835976 -0.20635006 -0.19546556 -0.05532003 0.09072278 -0.01424139 -0.12323544 0.30470178 -0.29082379 0.04660571 -0.19351028 0.05934443 0.15055683 0.28686711 0.20838709 0.02300492 0.21497972 0.31442848 0.14442539 -0.15502796 0.12372541 0.06198906 -0.06060276 -0.00972681 0.27485776 -0.02222559 0.12020236 -0.23626980 0.03217614 0.17651829 -0.02538544
0.00758373 -0.10780556 -0.00590843 -0.27482247 -0.04160627 -0.08481847 0.13466173 -0.07122726 0.08381296 0.04312881 0.03386746 -0.00211703 0.43473384 0.15403929 -0.13504763 -0.06463654 -0.16682643 -0.01005028 0.17478491 0.35119075 0.10222691 0.03016634 0.07490650 0.16023441 -0.06129978 0.24001716 -0.21960926 0.06906288 -0.20162627 -0.05501976 0.12921503 0.15284863 -0.09693920 0.16931099 -0.11467771 -0.16599450 0.07003296 -0.03961442 0.16550097 0.02551967 0.10305591 0.02503427 0.19388644 0.13086344 0.09176645 0.08787674 -0.02279354 -0.01699173 -0.17778309 0.17566603 -0.08521651 0.09898455 0.04758063 0.13634756 0.10055386 -0.15749283 0.00425117 0.07270361 -0.02307763 0.17837687 -0.15659541 0.05169696 0.26934394 0.10038763
-0.01273020 0.18442312 0.33872402 0.35060319 0.15700334 -0.04632289 -0.02951789 -0.15613240 0.14507018 0.23488073 -0.16350003 0.47819808 0.30418983 -0.09971239 0.20789178 -0.13034084 0.09469888 -0.06959464 0.21472929 -0.10095406 0.29801106 0.08055932 -0.08110905 -0.18697578 -0.17952399 0.05498137 -0.04845061 0.38501069 -0.06218625 0.05391603 0.00274837 -0.14835452 0.19693801 -0.07910115 -0.03778265 0.06631776 0.27564231 0.29145223 0.03878229 -0.14183331 0.05782708 -0.32700714 0.24108288 -0.43607253 -0.09171125 0.08489153 -0.34241909 -0.12055197 0.00005830 -0.09330178 -0.19310284 -0.13803209 -0.23260680 -0.36733070 -0.02460499 0.01330831 0.16077806 -0.08636509 -0.13114946 -0.18778160 -0.01211495 0.02528527 -0.16148263 0.01974654
0.28544754 -0.10035732 -0.08080767 -0.05492697 0.02907510 0.41912723 0.04247680 -0.17942019 0.11763134 -0.15074030 -0.01377598 0.08943260 0.09125949 -0.02779620 0.08493009 0.16252649 -0.15335158 -0.23518953 0.18641052 -0.12806739 0.26022097 0.11684597 0.11017317 0.11231129 -0.10481983 -0.02429674 0.33585250 -0.06874996 -0.07481737 -0.03373956 -0.21433833 0.01733478 -0.05840530 -0.21292703 0.03488717 0.36432812 -0.02770489 -0.21293014 0.13760598 -0.00651961 0.13051832 -0.05701457 -0.18831643 0.01752879 -0.15353337 0.04276652 0.03380220 -0.17970905 0.18455763 0.38791481 0.24654742 0.21450488 0.11034935 -0.19310482 -0.11920249 -0.22132768 -0.03793700 0.01095430 0.04287456 -0.45879149 0.42703962 0.14844893 -0.04819556 -0.26245916
-0.22922276 -0.31796747 -0.17515066 -0.11121926 -0.36287460 0.00413875 0.16721639 -0.06503411 -0.19137274 0.16509022 -0.26967710 -0.09108312 0.04982679 0.25562391 -0.02559767 -0.25255755 0.08694363 0.14890149 0.21402234 -0.13106979 -0.06044802 -0.27802098 -0.20979470 0.13823219 -0.07773034 0.09956132 -0.12875037 -0.08237202 0.00129101 -0.20712939 0.02172666 0.04260091 -0.22721006 0.12126637 -0.05274702 -0.15887094 0.10707196 -0.21522003 0.19890456 -0.04617932 0.04653999 -0.32235950 -0.10426079 0.00530726 0.05738633 -0.13464499 0.12390450 0.52827299 0.01153820 -0.22549903 0.17671274 0.08321203 -0.08123920 -0.07018974 -0.07159024 0.27735117 -0.32962069 0.41670886 -0.11667434 0.10040802 0.05759282 -0.41713056 0.16637941 0.32540146
-0.01300072 -0.00583463 -0.05240204 0.07427654 0.15030362 0.21197507 -0.21694045 -0.21388486 -0.17663631 -0.15632778 -0.25500169 0.06609993 -0.30676907 -0.14785418 0.07129141 -0.00274989 -0.02913218 0.04245080 -0.02234574 -0.10593659 -0.04644077 0.06608789 0.00001973 -0.05605188 0.33017260 -0.00071387 -0.20891178 -0.14715570 0.13825096 -0.06828425 -0.09537873 0.08985078 -0.16951032 0.16273344 -0.18320429 0.12828416 -0.03095899 -0.08308693 0.17947309 0.00530154 0.03014638 -0.25099388 0.05434081 -0.27625585 0.32516703 0.09843154 -0.25661269 0.27063248 -0.03578892 0.19944154 0.33117950 0.23764321 0.10230365 0.07263916 0.05770345 0.16875406 -0.21680920 -0.02726850 -0.15046823 0.09717722 0.00442089 -0.03846704 -0.22713941 0.06283829
0.00322052 -0.22413082 0.00788235 0.39305320 0.18875718 0.23352574 -0.18183553 0.08011775 0.01235341 0.02641034 -0.08415161 0.33459333 -0.07974173 0.29636705 0.35248759 0.05835075 0.37619409 0.05953775 0.05168420 -0.24096930 0.03923134 -0.02622787 0.02655770 0.00915229 0.01954849 -0.06080265 0.19583033 -0.01001800 -0.23378259 0.13104843 0.25625521 0.21441546 -0.08656240 0.16360812 -0.04061742 -0.20919533 -0.02380302 0.07225806 -0.24674457 0.03028462 0.04794782 0.13211194 0.02456158 0.65702540 -0.09584262 0.23774529 -0.01490757 -0.05795399 0.21471597 -0.00298532 0.11739337 0.02757896 -0.17728971 -0.07432070 -0.24758446 -0.10745018 -0.27787337 0.43715328 -0.13353850 -0.04895299 -0.14617054 -0.17024598 -0.42285934 0.13889936
0.00166805 0.02493979 0.14506924 -0.10183217 -0.01645445 -0.13783218 -0.10744169 -0.03695636 -0.00057343 0.10743168 0.05705815 0.08317280 -0.00120778 -0.07752199 0.00734508 -0.08436912 -0.04496525 -0.06346292 -0.12531406 0.06191899 0.08306468 0.10339055 -0.11907663 0.04123380 0.03092262 -0.16287765 0.01872117 0.07734489 -0.08397818 -0.05707703 -0.01736519 0.02300197 -0.00259261 -0.08295487 0.00351291 -0.11596447 -0.11496947 0.06796047 -0.11236304 0.07315518 -0.05441874 0.00594889 0.02197048 0.13426715 -0.01210675 0.02384254 -0.07735722 -0.02014498 -0.15547034 0.14335120 -0.13983124 -0.07626867 -0.16081277 -0.05325223 -0.03989856 0.06031877 0.01185899 0.00369110 -0.00973707 0.10270307 0.15118408 -0.05855918 -0.03047823 0.02940804
-0.16702200 0.03294409 -0.06069891 0.08489006 0.07367960 0.02891514 -0.02477537 -0.39136627 0.01171507 0.05608493 -0.17971218 0.10135478 0.10057244 0.08372556 0.24654673 0.01114824 -0.34856641 -0.03859299 -0.15429887 -0.00451940 0.47007889 0.18225788 -0.09007006 -0.24039662 0.10005540 0.04932031 -0.14069577 -0.13802280 0.07945551 -0.27455893 -0.03600547 -0.09797449 -0.01259146 -0.00051691 0.09539706 -0.15090571 0.15819973 0.19447474 0.28215495 0.12264081 -0.02900223 -0.23795997 0.04159288 -0.07928378 0.20522083 0.22041333 -0.15809610 -0.21996720 -0.19500405 -0.28168261 0.00900122 -0.01840124 0.12144694 0.05328678 -0.10247398 -0.00223730 -0.01173586 -0.08608557 0.14350101 -0.07585460 0.07835286 0.04251742 -0.25074378 0.14947318
-0.40530455 -0.14985426 -0.25054914 -0.31323576 -0.14374135 0.21348669 0.13035297 -0.09483857 0.03136633 0.03207128 0.07713570 -0.30813807 0.01330788 -0.08962838 0.06849004 -0.30773517 -0.37832341 0.39811110 -0.16067463 0.22532447 -0.08685007 -0.15752870 0.06087162 -0.25105321 0.13039918 0.23739406 -0.12000307 -0.05886298 -0.08734598 0.35592571 -0.33706006 0.15352939 0.03803099 0.03529911 -0.21763945 -0.46685204 -0.22372013 0.22062618 -0.02248309 -0.07651810 -0.40334690 0.05212114 0.16083850 0.00794689 -0.05599304 0.23466577 -0.10898476 -0.10944787 0.50793320 -0.25664470 -0.27822259 0.31397673 0.01584215 -0.23457812 0.33816278 0.22622362 -0.15637030 0.35333145 -0.03388738 -0.19628443 -0.02007884 -0.22980683 -0.23019323 -0.07123429
0.17366838 0.14796163 0.06316926 0.33821011 -0.18729688 0.04657002 -0.19407912 0.12891884 0.02610570 -0.05862835 -0.16969818 -0.13940899 0.09074670 -0.10244517 0.05631463 -0.04355946 -0.06921402 -0.14025620 -0.24459602 0.02153460 -0.06473958 -0.16463841 0.28122723 0.15811117 -0.13448949 -0.02132800 0.02793380 -0.33244085 -0.18387496 0.07761098 0.05880727 -0.31034306 -0.26698762 -0.26828337 -0.07141759 0.09775651 -0.01410033 0.30423319 0.02348308 -0.05115624 -0.01891319 0.06571895 -0.18717016 0.23950684 0.14106932 -0.14349179 -0.14525524 0.04629090 0.01591203 -0.03224722 -0.01652761 -0.31658661 -0.26225600 0.12296601 0.37573937 0.09021050 -0.01775094 -0.33468521 0.14767689 0.38475329 0.06419384 -0.30820373 0.15312393 -0.39295489
-0.05705788 0.27286005 -0.05486730 0.04102866 0.08669694 -0.11289936 -0.07275143 -0.38051355 0.05680718 -0.16130292 0.09212703 0.10646461 0.35242191 0.38693640 0.11032796 0.17517284 -0.08138154 -0.24034235 -0.21253920 0.09230341 0.04810951 0.31682137 -0.24892311 -0.17436907 0.16428757 0.01520934 0.09228802 0.13266455 0.06011304 0.08513755 -0.31966442 -0.39699125 -0.09931722 0.23602226 -0.16133784 -0.39968836 0.36420438 0.02095714 -0.26148638 0.01383812 -0.51639086 0.01035130 -0.23658334 0.05315588 -0.06914431 -0.04418575 -0.00234824 0.43320560 0.01898550 0.11858350 -0.01227002 -0.10655273 -0.13673706 0.06116610 -0.01239347 0.03176899 -0.17077608 -0.19732338 -0.23637994 0.29588687 0.36971956 0.13337840 -0.07958062 -0.20781581
-0.06928681 -0.14303233 -0.06013598 -0.11467640 0.08459802 0.04422106 -0.07539369 -0.09715107 -0.17971703 0.16956767 -0.10551104 0.40946764 0.04989210 0.07256909 -0.01991094 -0.09380333 -0.00088218 0.11298317 -0.00480346 0.18275824 -0.12808800 0.33952063 -0.13050379 0.17906524 -0.15429851 0.07803339 0.03691604 0.00413507 0.18321578 -0.27747720 0.31725398 0.24965149 -0.25344792 0.13654998 0.16784641 -0.00356479 0.00977880 -0.09647784 -0.19608875 -0.21862820 0.16573131 -0.04591355 -0.17273979 0.17969280 -0.13201924 -0.05570943 -0.18981241 -0.10370332 -0.05980465 0.10803029 0.15908733 0.01107342 -0.06185076 -0.12238732 -0.10153649 -0.06269216 0.39285967 -0.10550597 0.14791064 0.00458598 0.07777344 0.06758685 -0.06955469 0.12072043
-0.06388915 0.04201965 0.25462791 0.21543489 -0.08416191 0.18834929 -0.19934347 0.26179487 0.27997050 -0.16520391 0.08234990 -0.19197145 0.13631734 -0.02990301 0.07160940 -0.13527143 0.03674477 -0.11074819 0.02829260 -0.09694709 0.18814483 0.12077218 -0.36166906 -0.27188194 0.18406138 -0.29736489 0.07753196 0.28175464 -0.13589811 -0.01672144 -0.29667893 -0.24804319 0.21197923 0.28439403 0.21264210 0.11848800 -0.10623457 -0.08653980 -0.08206853 0.06177214 -0.19319282 -0.03119841 -0.21787350 -0.16617781 -0.26391053 0.20360765 0.20873304 -0.12665184 0.01192725 0.44628298 -0.12117566 0.03160964 -0.16210286 0.15136001 -0.12939145 0.11923449 0.06330586 0.22076802 -0.25820032 0.21301708 -0.00499537 0.17846517 -0.18916987 0.02096022
0.04211307 0.10871132 -0.39185292 -0.09557366 -0.01685023 0.12100798 0.01698421 0.07462633 0.10731361 -0.26213220 0.11400337 -0.21392906 0.12727372 -0.13065696 -0.15333520 0.05368623 0.40312180 -0.19185962 -0.18013939 0.04606504 -0.34637752 -0.14939663 0.39771685 0.18587498 -0.23295602 -0.10229087 0.49054855 0.31221336 -0.16610055 -0.07669035 0.09117747 0.03785840 0.00200005 0.05276902 -0.20314144 0.00622648 -0.11215173 0.12400030 -0.12166642 -0.10256159 0.04103023 0.32343772 -0.26662326 0.00226763 -0.02668603 -0.02757816 0.40800408 0.30475047 -0.19494708 0.14988960 -0.18549719 -0.10999341 -0.26676950 -0.01967954 -0.20869277 -0.05177034 0.03627642 -0.12362488 -0.03711600 -0.62663686 -0.11153199 -0.08872079 0.04317424 0.12419262
0.39951181 -0.33695579 0.43406510 -0.21954145 -0.12747741 -0.28334469 -0.00175335 -0.27339026 -0.15892735 -0.25838196 0.13178092 -0.10017019 -0.13380560 -0.02343681 0.14111315 0.22197461 -0.09148276 -0.00355765 0.15346991 -0.01488185 -0.08875097 0.18107019 -0.27917057 0.23513837 -0.28664348 0.03948853 -0.06227937 0.12216233 0.00467546 0.09129250 -0.07559028 0.08698860 -0.00389942 0.00623425 0.16195329 0.07604200 0.04652805 -0.06354044 0.11238525 -0.02156312 -0.22858678 0.22684130 -0.08965822 0.21316168 -0.00565638 -0.10411703 -0.25524423 0.00415616 0.05102573 0.11280462 0.04829224 -0.03615531 0.07654492 -0.19184156 0.05667557 0.03257604 0.20058459 -0.10873581 0.10875148 0.05263319 -0.19922484 0.01911808 -0.31340772 -0.09504392
0.11721301 -0.04066006 0.16567793 -0.21704616 0.35573241 0.15815939 -0.02913108 -0.10678957 0.09140015 0.01803479 -0.10714372 0.54445589 0.10820346 0.14516279 -0.70302069 0.00716645 0.24462453 0.03472814 -0.00383329 0.16265219 -0.25149977 -0.08242378 0.17656758 0.25922665 0.26272282 -0.07381821 0.09380440 0.04012319 0.03033916 -0.23109210 0.10897630 0.21418417 0.16699940 -0.30466384 0.15632188 -0.07703499 -0.38411748 0.36809373 0.10133094 0.15805292 0.33383843 0.17850147 -0.27823949 0.15747762 -0.21841745 -0.24820730 0.13590127 -0.12257954 -0.00114188 0.24463937 0.06668472 0.16197062 0.32943752 -0.04968370 0.07158753 0.15295103 -0.33946121 -0.14332412 -0.34751812 -0.02214849 0.14376314 -0.29760441 0.12435023 0.17597736
-0.05183825 -0.19805720 0.01555122 -0.06908520 -0.21429567 -0.06025537 -0.05462033 0.22707291 -0.05252123 0.20740563 0.35790074 -0.02296439 0.07361600 -0.04546139 -0.03951985 -0.15341276 0.05599639 0.05981242 -0.33701873 -0.25530568 0.13730884 -0.41436428 -0.25741121 0.26602376 0.21762897 -0.22949876 -0.00703135 0.33283067 0.43457741 0.01663236 0.14624594 -0.23787855 0.17434894 -0.13290058 -0.12576546 0.04480938 0.33924788 -0.30661407 -0.10590830 0.29167715 0.28650072 -0.15681675 -0.01770516 0.16932003 0.20223723 0.20233753 0.13528229 -0.02658527 0.06964897 -0.03192049 -0.12758794 -0.01721312 0.19589263 -0.02613064 -0.06140961 -0.19841956 -0.05205948 0.08970034 0.06207248 0.05270769 0.27800128 -0.07248864 0.04624885 0.14729014
-0.27172798 0.04420302 0.03837213 -0.09377846 -0.15499945 -0.23730929 0.19612725 0.25374839 -0.00364577 0.19817948 0.03893716 -0.16799632 0.18160717 -0.13476875 0.12379088 -0.13988775 0.24830993 0.00003877 0.07905134 -0.09756351 -0.04470841 0.19479004 -0.10760685 -0.16959627 0.10007834 0.03761098 -0.24334314 0.02140898 -0.29482248 0.06603328 0.34382862 0.36084071 -0.25342491 -0.01127151 -0.28730431 0.41028017 0.19380954 -0.14813605 0.03365969 -0.03135359 0.08951548 -0.05350603 0.08302781 -0.00939007 0.16411985 0.03271823 -0.06274165 0.05355314 -0.10663787 -0.32302934 -0.03622313 0.18471986 -0.32569185 0.07625004 -0.19835480 -0.14059034 -0.18883325 0.20566763 -0.19253039 -0.41073138 -0.18448667 -0.15095176 0.14107075 0.24921055
0.06651539 -0.00677956 -0.34981692 0.31557178 0.09071359 -0.22931184 0.23230557 0.10543142 0.07787017 -0.15113053 -0.28638640 -0.24133702 -0.00060117 0.14227921 0.23399481 0.45863956 -0.03163399 0.22179866 0.36222622 -0.07652791 0.07602593 -0.27724540 0.11864027 -0.09663439 -0.06519374 0.06576567 -0.07485603 -0.24717039 -0.02199462 0.17449152 -0.37170750 0.22666037 -0.24665533 0.07349684 0.03207405 0.26070544 -0.34533295 -0.02964374 0.04067936 0.12449685 0.00413380 -0.03451108 -0.22706184 -0.29213944 0.00425338 0.30250576 0.06447320 0.05315269 -0.06495468 0.31794173 0.22547333 -0.16763733 -0.19002341 -0.15412009 -0.06980985 0.02161945 -0.18128888 0.19443364 0.13417953 0.20006359 0.05917311 -0.12200978 0.18692502 -0.14990106
-0.08486598 0.24232148 0.16787076 -0.16626069 0.15762046 0.14769365 -0.24173020 0.19446337 -0.03230575 0.22739941 -0.24932314 -0.25254172 0.02637877 0.12001571 0.11641860 -0.06829530 -0.05424174 0.17634395 -0.12305591 0.15879659 -0.17269310 0.19740540 -0.01577540 0.16444267 0.07698538 -0.20947774 -0.06108170 -0.23421520 0.24781393 -0.11073270 0.16907348 -0.07117470 0.10061896 0.07765171 0.01565875 0.17909412 -0.26180220 0.02975579 0.34886780 -0.20078418 -0.17806822 0.12826061 0.16205423 -0.14264719 0.03607739 0.07981685 -0.08312839 -0.12240203 0.11886134 -0.03388301 -0.32892403 -0.06164415 -0.09076668 0.07705123 0.12933579 -0.28752393 -0.12532641 -0.13941008 0.11276909 0.10952853 0.30576718 -0.10974973 0.05585210 0.15341376
-0.20840009 0.26082832 -0.01589165 0.24235737 -0.31151956 0.01886014 -0.25336722 -0.21663363 -0.05941509 0.17597432 -0.20532502 0.00900311 -0.37991026 -0.09494406 0.17680860 -0.08974737 -0.01431900 -0.07087834 0.36336336 0.03697229 -0.11791473 -0.02557459 -0.09603638 -0.40636379 0.02425721 0.05325158 -0.09717552 -0.11820794 -0.27890462 -0.41995066 0.20932692 -0.04930520 -0.29801115 -0.01668305 -0.18878824 0.08552620 0.00767569 0.29922745 0.15838790 -0.20971312 0.00343211 -0.21736951 0.04780590 0.29448992 0.12977272 0.05902293 -0.26967496 -0.24133095 -0.24287474 -0.20945375 0.32070816 -0.21161826 -0.08095313 -0.12277167 0.13643830 0.21133198 0.07823800 0.08192001 0.03724166 -0.03594527 -0.32391897 -0.03142703 -0.07766006 -0.15433250
0.33880901 -0.04649744 0.06839818 -0.09766572 0.03957738 -0.05773595 -0.04748287 0.10052887 0.18213408 0.18292665 0.03921473 0.16389452 -0.09328011 0.20613828 -0.34204191 0.26326016 0.22642332 -0.09228165 -0.04067079 0.04321676 0.10787173 0.28237069 0.04245488 -0.12287153 -0.11753225 -0.00187261 0.20793320 -0.04630676 -0.15740502 0.04105163 0.02099128 0.22679381 0.03639185 -0.09496094 -0.04950400 -0.01164195 -0.01226114 -0.01916171 -0.47212461 -0.15861480 0.37312350 0.07109188 0.00349237 0.19250171 -0.20597342 0.08099305 0.12385982 -0.13466680 0.01474674 -0.07522885 -0.27950701 -0.38388115 -0.15582579 0.02144471 -0.10699139 -0.13287182 -0.39190179 0.17155898 0.23962726 -0.03632839 -0.28241098 0.22704445 -0.18789424 -0.01773892
-0.13524424 -0.12239608 0.10035981 -0.10274930 0.11113714 -0.01570555 -0.04652259 -0.05004291 -0.11650982 -0.05859353 0.12331191 0.09581805 -0.01048071 0.07067081 -0.14357662 -0.22327781 0.02860199 0.26505810 -0.27368283 0.03592208 -0.12789446 0.14130059 0.26711246 -0.08161890 -0.03642927 -0.03733231 -0.06253677 -0.06367864 0.11881816 -0.00511860 -0.06134580 -0.23581260 0.19106194 0.06704193 0.12755509 0.09504925 -0.32474244 0.03339496 -0.01344578 -0.34608641 -0.36493838 -0.12260467 0.19515434 -0.12792142 -0.19486919 -0.05873908 -0.01344371 0.10787117 -0.24513620 -0.11475172 0.15288611 0.15210025 0.12837124 -0.07486651 -0.11896700 -0.29515231 -0.39592341 -0.24456121 0.20725721 0.00005601 -0.08659456 -0.16878025 0.20026062 -0.02959101
-0.16152552 0.41548267 0.07100417 0.00392831 0.14028069 0.19702913 0.02487707 -0.04861418 -0.11628081 0.39675510 0.07546476 0.25071362 -0.29926795 0.00014060 -0.07283495 -0.25299188 0.25639373 -0.09095310 -0.06660123 -0.31784037 -0.24390389 -0.44661099 -0.24562189 0.13379253 0.11653507 -0.01189978 -0.15194087 0.00449943 0.08920909 0.02665722 0.20612720 -0.23549522 0.01189428 0.00940846 0.51498330 -0.10780701 0.15892343 -0.22730142 0.08417635 -0.12533711 -0.03539730 -0.03223637 0.03307890 0.01111395 -0.11195508 0.21868835 0.13201369 -0.04965658 -0.14887412 0.24908870 0.23342931 0.13424248 0.06873186 0.17057590 0.30149838 -0.16566806 0.30648521 -0.18328169 -0.07282297 0.11135009 0.19702652 0.25987378 -0.00669345 0.07173538
-0.18299790 0.12921360 0.06536418 -0.31205940 0.32654247 0.08310883 0.34573677 -0.13387805 0.33322003 -0.03007754 0.14780866 0.09491932 -0.14211804 0.26516250 0.20760037 0.13928013 -0.11862624 0.06260798 -0.09985647 0.08210212 -0.18248339 0.07538158 -0.02522841 0.34706253 -0.36985141 0.26216525 0.12117145 -0.17185526 0.26797032 0.20817429 0.02181254 0.14071974 0.32118291 0.01748071 -0.00946752 0.12482730 0.09792210 0.33975190 0.11653676 -0.09599531 -0.03223925 0.13339594 0.11197808 -0.04222384 -0.01114583 -0.23674588 -0.12428716 -0.21046469 0.01958355 -0.23774880 -0.05007709 -0.07211214 -0.04504104 0.28922939 0.06874326 -0.06707046 0.34319672 -0.20494044 0.16986534 -0.15083143 -0.15213002 -0.00466369 0.12608920 0.05820289
0.44451484 0.19353195 -0.03489656 0.17085399 -0.17100649 -0.07084186 0.20629381 -0.07228287 0.07525340 0.22825027 -0.08932453 0.35186160 0.16954060 -0.08215721 -0.02689001 0.08168481 0.16283727 0.06353769 0.26093817 -0.22545658 0.00086008 0.02743441 -0.02010635 0.22236994 -0.13932858 0.27649349 0.10112734 -0.27518260 0.36000580 -0.06841463 -0.10267282 0.28753519 -0.03556712 -0.05224812 -0.13852341 -0.15541553 0.12868944 0.27896181 0.17532133 0.12575883 0.10303810 -0.27617958 -0.27852055 0.00133859 -0.00208084 -0.09473483 -0.17481251 0.19213730 0.29942167 0.32750732 0.37887836 0.03385915 -0.06007060 -0.34593469 0.22171456 0.20494282 -0.25274652 0.09459931 -0.19837530 0.28183493 -0.03657159 -0.02706115 0.03987894 -0.10775312
-0.30080160 -0.07888570 0.24196608 -0.11419736 0.04290456 -0.27893910 -0.08525372 0.06898967 -0.19677171 0.30698329 0.00901205 -0.05553500 0.26868835 -0.10711797 0.10757107 0.32178241 -0.19863991 -0.20962270 0.31559059 -0.05999509 0.00216653 0.01866013 0.21769641 0.06207552 0.15769365 0.02847631 -0.40867329 0.08648416 0.10654037 0.07822532 0.25126606 0.44258332 -0.08539682 -0.01447266 0.24359418 0.41936961 -0.13026670 -0.05264426 -0.11560253 0.04318850 0.10584242 0.31561211 0.31594765 -0.24991991 0.21047705 0.16771604 -0.19471999 0.14962581 -0.06443676 -0.29680821 -0.22043630 0.23271410 0.23085195 -0.03469340 0.04025343 0.18499671 -0.03780011 -0.14258115 0.08478743 -0.10259698 -0.19092155 0.00814458 0.07449421 -0.20536874
-0.06114577 0.01938694 -0.08907109 0.25724417 -0.01269433 0.21229605 0.23597163 -0.05117911 -0.07490784 0.10666350 -0.07191621 -0.05666580 -0.04851950 -0.02381859 -0.00717677 0.01199193 -0.08646228 -0.02456315 0.10153484 -0.12140310 0.08464548 0.00186540 -0.01100559 0.06892547 -0.04728310 0.11841997 0.15960105 -0.13915989 0.09912636 -0.13317494 -0.02030151 0.11049102 0.03664030 -0.35393950 -0.13792032 -0.19113402 -0.11718597 -0.11661935 0.03628974 0.04084811 0.14732309 0.08400773 0.13748105 -0.08661775 -0.01817296 -0.06647696 0.12976289 0.31711590 0.14331739 0.06478627 -0.17275509 -0.01525401 0.20342597 -0.01297048 0.03900080 -0.01152843 -0.01453796 0.06842376 -0.02065638 -0.02441641 0.04531234 0.06564856 0.08125967 -0.07485192
0.05046813 0.06500898 -0.11300889 0.14287217 -0.23852551 -0.08344272 -0.46650547 -0.02563380 0.21932489 -0.09683859 0.54751545 -0.09827816 0.21089241 -0.01400360 0.32388115 -0.08494531 -0.01356777 0.02353358 -0.37265900 0.51309490 -0.04042422 0.10660728 0.04903081 -0.03734623 -0.07479349 -0.14139238 -0.30691633 0.19874464 -0.16432682 0.06471846 0.16478309 -0.06858521 0.08683107 0.10771672 -0.31281689 0.00864395 -0.03315952 -0.35491383 0.02186368 0.23255605 -0.02245808 -0.19284920 0.30990010 -0.22156224 -0.13922451 -0.18382113 0.10677408 0.37556171 0.03103272 0.06149410 -0.12927218 0.25022548 0.02682262 -0.10348601 -0.18469317 -0.14347622 -0.31224766 0.11968853 0.20125240 -0.09964444 0.02914869 -0.01178231 0.00993775 0.15741670
0.02276172 -0.54790282 -0.18109152 0.15173995 0.09088369 0.15136865 0.26571718 0.00592663 0.47975880 -0.39360380 0.15375400 -0.35123941 -0.87025398 -0.16215856 0.06407232 -0.07992494 -0.10361213 0.18764004 -0.26199350 -0.14452121 0.32405117 -0.09859259 0.15698878 -0.29704174 -0.23963240 0.65186465 -0.68400997 -0.43379897 0.11083547 0.20279272 0.48255932 0.15098391 -0.02652851 -0.41931835 0.19526000 0.52705699 0.15423860 0.23117875 0.11972915 0.07344759 0.13632596 0.13008150 0.55361933 -0.12136350 0.26213148 0.21538547 -0.07432430 -0.07856788 0.27544954 0.39998084 -0.15610513 -0.33549213 0.28239936 0.58795625 0.27691367 -0.65813500 0.19932602 0.11385434 0.02639037 0.79667711 -0.25388578 0.08036295 -0.10747065 -0.42009744
-0.39074683 0.07573907 -0.09924237 -0.13649146 0.24010107 -0.12946039 -0.08245123 0.13894059 0.09474158 -0.13322258 -0.03986624 0.36199483 0.19451155 0.02021563 0.11413932 0.11562623 0.04878124 0.35555321 -0.18888146 -0.13239025 0.00284309 -0.04398524 0.21860313 0.06446108 0.06785342 -0.12791720 0.11930986 0.12018652 0.02981491 -0.20543349 0.26578999 0.12208882 -0.11432373 0.39940998 -0.68179858 -0.16211176 0.13455489 -0.30677807 -0.05862362 -0.17371833 -0.07547515 0.14329816 -0.23686343 -0.28179991 -0.09072676 0.15127517 0.13423367 0.21624236 -0.20689383 -0.41311997 -0.35485920 -0.22999574 -0.02089557 0.15675206 -0.25150040 0.33096051 -0.39600310 0.15131536 0.24113292 -0.10158716 -0.10762820 -0.31074366 0.43946430 -0.00454169
0.11691365 0.37151337 -0.14366384 -0.01822264 0.16469955 -0.67965925 -0.38099432 -0.47015247 -0.51037681 0.15058190 -0.91309875 0.23237652 0.05019797 0.42115393 0.00728636 0.40829220 -0.03299831 -0.05292850 0.59230942 0.36728346 -0.76392835 0.22784762 0.07793377 0.35334033 0.05516710 -0.06983074 0.10645518 0.15515868 -0.06004799 0.05101389 0.09253288 -0.26518375 -0.59533435 -0.09772706 -0.22867641 -0.32320523 -0.26734278 -0.17534706 0.04671110 0.11156715 -0.05367719 -0.63083887 -0.60322684 0.32000390 -0.26765317 0.25660035 0.35642883 -0.30426231 -0.05939242 -0.85165483 0.21882340 0.22937989 0.09937138 -0.21135254 -0.14977525 0.78582948 -0.21636114 -0.01160574 0.06923754 -0.84090614 0.29659304 0.02418251 0.36884511 0.04888630
0.06567631 -0.14059988 0.04070363 -0.27154988 0.12576139 -0.00002878 -0.26114321 0.14702004 -0.32659391 0.18791366 0.16362280 0.28410456 0.07384224 0.14696811 -0.15519421 -0.03367821 0.07495082 -0.11141598 -0.01513079 -0.17544989 0.20438807 -0.15957415 -0.12670720 -0.24235977 0.16205841 -0.20710944 0.40871102 -0.10452173 0.17527659 -0.25757366 0.24291500 -0.13379534 -0.11060617 -0.12042636 0.21527351 0.04085992 -0.24952371 -0.11187537 0.06822296 -0.21878986 -0.06418791 -0.01892355 -0.16832373 0.37341496 -0.33406764 -0.05689027 -0.33016619 -0.14045110 0.12478461 -0.38807300 0.25674102 -0.05691266 0.09541847 -0.17717034 -0.04634671 -0.17443675 0.31050426 -0.03755684 0.07716130 -0.19548506 0.09813215 -0.15819933 0.00394784 -0.10076646
0.33277813 -0.01855560 -0.28738436 0.10862976 0.41257522 0.37338507 0.18576990 0.14256482 -0.39152336 -0.16842677 -0.34531584 -0.23255436 0.22799882 -0.04794043 -0.28430235 0.04002712 -0.12504670 -0.06841132 0.02169842 -0.05871433 -0.10856620 -0.28235456 0.42077506 0.01289783 0.16320804 -0.09043069 0.11256173 0.23283102 0.19396980 -0.07964475 -0.23822579 0.31670433 -0.24007562 0.02276715 -0.06290919 0.22306657 -0.15868932 -0.08135360 -0.24262822 -0.38789225 0.12474464 0.22861707 -0.14034970 -0.29626074 -0.16376631 0.08924411 0.21445303 0.03314387 -0.36810750 -0.18992354 0.03684361 0.01947586 0.01793844 0.01929553 -0.04140269 -0.13430351 -0.18344654 0.02145491 0.17017218 -0.06954021 0.07162198 -0.20900869 -0.25354061 0.15057959
0.17040391 0.17284717 0.23698749 0.26258454 -0.17851329 0.01122857 -0.44551438 0.04631741 -0.58417898 0.22700813 -0.01592643 0.42287546 0.44142434 0.39960173 -0.44037166 0.03495884 -0.00048980 -0.40663186 0.00145220 0.05747225 -0.41012561 0.25298351 0.05339696 0.56451803 -0.10398265 -0.58025181 0.34549564 0.58480734 -0.05256729 -0.11782498 -0.30088347 -0.30758184 -0.09557001 0.04736080 -0.07023481 -0.16607985 -0.08831286 0.32946968 0.11247604 0.35049257 -0.29368064 -0.00858981 -0.72510326 0.28599519 -0.20834574 0.08414438 0.28322485 0.28339455 0.14185953 0.05889883 -0.08891772 0.51513577 -0.50690556 0.10695009 -0.23940875 0.69878846 -0.56955653 -0.03191857 -0.51590341 -0.41041076 0.54139864 0.17566811 0.14104484 0.47160748
-0.14947733 -0.18833056 -0.16959274 -0.00310641 0.21754058 0.03531061 0.01637464 0.00878659 -0.03963006 0.11993655 -0.00084320 0.14744739 -0.06921933 0.02321330 -0.25402832 -0.31931245 0.23680653 -0.03778320 -0.04459861 0.38936391 -0.05908747 -0.23969311 0.33737871 -0.10747260 -0.09004077 0.22351667 0.16626781 -0.09016228 -0.01523936 0.21095629 -0.27500048 -0.10101161 0.08912355 0.06285761 0.07094876 -0.17938766 -0.34144515 -0.09169536 -0.23434548 -0.37166557 0.07095642 0.30440602 -0.00809140 -0.16585210 0.06394105 -0.43634659 -0.23610726 0.00656585 -0.25850669 -0.09547020 -0.01225402 -0.04675101 0.03951776 -0.31250888 0.17405191 -0.09060790 0.05597032 -0.17461455 -0.03162351 -0.07121156 -0.16771722 0.08616372 0.03945183 0.08300126
0.38136396 -0.06482225 -0.00057626 -0.08482672 -0.15151687 -0.21506734 -0.01250421 -0.19432536 0.09420025 -0.37419698 -0.61335784 0.11810692 -0.03372699 0.14931567 0.23540819 0.32950112 -0.14803386 0.05938721 0.23005077 -0.11503262 -0.05815141 0.05934228 0.00755444 -0.15041192 -0.18157499 0.05240529 -0.18399969 -0.23964271 0.30934891 -0.20659630 0.26670542 0.00743756 0.34666049 0.35078058 -0.62010103 0.26615417 -0.21246760 0.14418156 -0.11285485 0.04529864 0.21545944 0.12615578 -0.03859315 0.03653654 0.14827716 0.07178023 -0.34919307 -0.34246004 0.17311233 -0.40020382 0.31774142 -0.17959395 0.16175336 -0.20899591 0.14769639 0.17782268 0.06832252 0.04102956 0.45412797 0.17411788 -0.65901464 0.13295944 0.17243543 -0.05198020
